/*
----------------------------------------------------------------------------------
--	(c) Rajesh C Panicker, NUS,
--  Description : AXI Stream Coprocessor (HLS), implementing the sum of 4 numbers
--	License terms :
--	You are free to use this code as long as you
--		(i) DO NOT post a modified version of this on any public repository;
--		(ii) use it only for educational purposes;
--		(iii) accept the responsibility to ensure that your implementation does not violate any intellectual property of any entity.
--		(iv) accept that the program is provided "as is" without warranty of any kind or assurance regarding its suitability for any particular purpose;
--		(v) send an email to rajesh.panicker@ieee.org briefly mentioning its use (except when used for the course EE4218 at the National University of Singapore);
--		(vi) retain this notice in this file or any files derived from this.
----------------------------------------------------------------------------------
*/

//#include "ap_axi_sdata.h" // ap_axis can also be used, but it will include all sideband signals which we don't need
#include "hls_stream.h"
#include "ap_int.h"
#include <tgmath.h>
// Creating a custom structure which includes the data word and TLAST signal.
// ACLK, ARESETN, TREADY, TDATA, TVALID are essential signals for AXIS.
// TLAST is a sideband signal which is optional in AXIS.
// However, it is necessary for us since we connecting M_AXIS to AXI Stream FIFO / AXI DMA.
// So, we create a struct with data (TDATA) and last (TLAST). The rest of the essential AXIS signals are automatically dealt with by the HLS tool.

#define INPUT_LAYER 432
#define LAYER_1 32
#define LAYER_2 64
#define OUTPUT_LAYER 4

struct AXIS_wLAST{
	float data;
	bool last;
};


void mlp(hls::stream<AXIS_wLAST>& S_AXIS, hls::stream<AXIS_wLAST>& M_AXIS) {
#pragma HLS INTERFACE ap_ctrl_none port=return
#pragma HLS INTERFACE axis port=S_AXIS
#pragma HLS INTERFACE axis port=M_AXIS

    float l1_weight[INPUT_LAYER * LAYER_1] = {0.15922128,0.2477464,0.2358842,0.20056474,0.18666394,0.25467166,0.27778748,0.21053426,0.048688263,0.23148255,0.14693378,0.037327982,0.22467646,0.21047145,0.1287904,0.08819909,0.2291856,0.22280356,0.12646675,0.23785087,0.07128988,0.18822648,0.160661,0.11082941,0.016210571,0.19314918,0.13281873,0.16251305,0.075429834,0.10904574,0.1478276,0.19474064,0.08727019,0.21290785,0.11705801,0.1478027,0.020511217,0.10355457,0.12445801,0.16430853,0.17560168,0.0026920303,0.07145025,0.052633766,0.0046714973,0.0012700674,-0.03057777,0.06717693,0.148027,0.19762728,0.13615216,0.063457154,0.15091635,0.08683972,0.051177997,0.21617416,0.078166045,0.22638832,0.097276054,0.20472111,0.07057786,0.18625093,0.048586175,0.15204109,0.1272778,0.15860923,0.16072056,0.17592101,-0.00033755525,0.09962476,0.028291611,0.02835581,0.12000887,0.118708976,-0.0076094964,0.04217207,0.031656284,-0.0330911,0.019277735,-0.00730975,-0.03630121,0.027400719,0.05680099,0.08970945,0.01445802,-0.08297055,0.060248394,-0.006500686,0.031228933,-0.09557645,-0.03653856,0.004015952,-0.015532416,0.08497346,-0.12630025,-0.03427656,-0.06567996,-0.036080975,0.014822064,-0.0062045855,-0.033224534,0.10451109,0.14000069,0.1606217,0.027206022,0.056130946,0.02460931,0.17261778,0.040963385,0.13245982,0.06890615,0.21506533,0.15516064,0.15410396,0.27560085,0.20596826,0.16457376,0.17223613,0.18598402,0.27267697,-0.19578694,-0.09234249,-0.13187408,-0.12556747,-0.2337992,-0.3043803,-0.19532347,-0.25446212,-0.17745924,-0.35055426,-0.20117852,-0.25976115,-0.38006827,-0.2269468,-0.3877013,-0.35553506,-0.20189679,-0.35414752,-0.21144752,-0.21154217,-0.22998747,-0.2993979,-0.34810638,-0.39575493,-0.35811016,-0.28990203,-0.431619,-0.275146,-0.382662,-0.3207493,-0.29407823,-0.40203485,-0.20802313,-0.31833562,-0.3112802,-0.17652701,-0.14952058,-0.23583695,-0.32303384,-0.22812766,-0.2916844,-0.18963706,-0.1369532,-0.22131597,-0.16043346,-0.18572852,-0.23821104,-0.14636616,-0.06973551,-0.1985718,-0.1882471,-0.20476525,-0.2908048,-0.2457276,-0.15791535,-0.31097206,-0.27340138,-0.16161987,-0.26500478,-0.1272158,0.046203587,0.120352276,-0.07813088,-0.016966226,-0.01555616,0.083975434,-0.0672842,-0.01211494,-0.0631439,0.12819844,-0.043530464,0.06748692,0.09412794,-0.038281836,0.015387902,-0.009505064,-0.043322712,0.09344115,0.03397341,0.011350001,-0.030981697,-0.06491822,0.099032685,0.06618064,-0.04033487,0.076706305,-0.043876857,-0.11352721,-0.021331158,0.048056733,-0.039260447,-0.0018556633,0.023031453,0.028911913,-0.07576774,0.021720976,0.027946252,-0.05351013,0.12465249,0.08883823,0.08396136,-0.0957165,0.021378485,-0.057194877,0.09083729,-0.033952475,0.09433886,-0.0013670317,0.23863097,0.16259754,0.07660218,0.09024998,0.05252107,0.11137446,0.031899612,0.09213649,0.14483455,0.031519994,0.016364878,-0.04510746,-0.13513663,-0.021627631,-0.022969568,-0.05398781,-0.023626762,-0.078423835,-0.10141155,-0.124735765,-0.07455016,-0.13092798,-0.0451369,0.007534804,0.061212484,0.0031074504,0.013003346,-0.028262386,0.098967426,0.016341297,0.03188634,0.09756444,-0.077363014,-0.014125666,0.086451866,0.06311504,-0.008484455,-0.08052514,-0.10632055,0.05507525,-0.040617533,-0.031476203,0.07025181,0.07230924,-0.007920975,0.09166421,0.008591752,0.06556638,-0.07601209,-0.122435495,-0.13436076,-0.09383114,-0.044196554,0.02760609,0.024996543,0.096535474,0.050219446,0.08672689,-0.041336276,-0.08502158,-0.017005589,0.051090676,-0.05005015,-0.032330673,-0.023747252,0.09876437,0.034275685,0.028515274,-0.068879426,0.0313975,-0.050546553,0.043454334,0.12840119,0.058854956,0.088624574,0.09446818,-0.04541833,0.1059846,0.094621226,-0.082666494,-0.06867184,0.11291871,-0.03955966,0.06565071,0.0029885112,0.12262361,0.1147734,0.02735212,0.111380465,0.025300883,0.04763343,0.0637132,-0.023822015,0.023824237,0.004492066,0.15236475,0.053444803,0.039934807,0.020992436,0.062189896,0.0638223,0.033298656,0.10289983,0.085700616,0.067602344,-0.0027782351,0.010125579,-0.009844356,-0.034798473,0.05780679,-0.077484265,0.10507748,0.11435537,0.13223092,0.07645247,-0.054534886,0.06331247,0.021763232,-0.034815967,0.09372106,-0.06813911,-0.0007037881,-0.095629714,-0.043712616,-0.0913923,-0.08716125,-0.0007224226,0.136153,-0.07154685,-0.043659654,0.089039,0.08431298,0.30852425,0.06816184,-0.35857907,0.003907907,0.0667953,0.08727047,0.0528667,0.103808604,-0.32850984,0.26637748,-0.08432479,0.18357307,-0.04759928,0.06997034,0.020956494,-0.048425183,0.009647355,-0.07286977,0.10503429,0.07120695,-0.09578645,-0.074023634,-0.016942747,0.10002916,0.02389849,0.047935247,-0.048892174,-0.025796164,0.032916114,0.07292508,0.096177265,0.09029747,0.07732884,0.054866042,0.11759766,0.04578805,-0.017340561,-0.10791336,0.028774122,0.00023802333,-0.011346501,0.053099208,0.029639529,-0.04470773,-0.06295857,-0.037049048,0.058154818,-0.098980285,-0.039966162,0.08819179,-0.092477344,-0.0929771,0.004687993,-0.06363833,-0.028405547,0.112541154,0.087634854,-0.059109833,0.097205564,-0.03801718,-0.003423377,-0.06969353,-0.08965891,-0.048981316,-0.09130979,-0.07983242,-0.07184078,-0.055427585,-0.019499477,-0.114240326,0.080381654,0.029956045,0.15808763,0.18655974,0.095891014,0.19782278,0.27779853,0.1658922,0.21324918,0.19719255,0.074773245,0.19074127,0.10330381,0.27029583,0.13366565,0.12519324,0.100042254,0.29262978,0.21372274,0.18125284,0.10022385,0.07603629,0.15817568,0.13686499,0.2913628,0.10898889,0.20543063,0.26431954,0.25725672,0.13386908,0.3092755,0.2995105,0.31504753,0.21583356,0.1538861,0.33629227,0.12806734,0.15102376,0.23869617,0.181142,0.11233504,0.19357423,0.30979803,0.21949592,0.11541184,0.10378345,0.242996,0.2823132,0.07635955,0.21351548,0.13438152,0.20565386,0.19045335,0.050747223,0.2297035,0.2027583,0.11338029,0.09333422,0.10137539,0.062286574,0.24293908,0.15913782,-0.06744523,-0.012474902,0.0015757886,-0.07335036,-0.13275693,-0.1348182,-0.08752388,-0.16027948,-0.11674239,-0.21372132,-0.039369732,-0.13966183,-0.10200524,-0.15061982,-0.16690202,-0.24551386,-0.13114025,-0.18566398,-0.014216205,-0.17383644,-0.17598423,-0.10285972,-0.027709976,-0.056199297,0.05189913,0.06773405,0.021359034,-0.048901953,-0.15982768,0.048827756,-0.17171802,-0.16797107,-0.075313665,0.04525952,0.077360615,-0.029085662,0.08509678,0.094589524,0.038427226,0.087843366,-0.04790153,0.1250578,-0.041835744,0.026328065,-0.058712587,-0.0044544707,0.07258781,0.1134125,0.13290893,0.18752377,-0.02235048,0.040672995,0.07104523,0.07044642,-0.043526247,0.058128245,0.041324098,-0.018975897,0.048736382,0.10751127,-0.08814712,-0.15795664,-0.06629609,-0.16170256,-0.14130995,-0.10299176,-0.22027029,-0.10404419,-0.1640388,-0.13469113,-0.18152249,-0.13286677,-0.26864228,-0.21215774,-0.15920994,-0.074103944,-0.14600085,-0.10374167,-0.13004392,-0.08998253,-0.29600215,-0.10605909,-0.23660548,-0.09641905,-0.15515897,-0.16047768,-0.28013554,-0.121525,-0.17462695,-0.25383753,-0.1687618,-0.26121667,-0.101710275,-0.2666917,-0.28252763,-0.22880629,-0.1041796,-0.067566454,-0.22522667,-0.20896374,-0.24134281,-0.15334278,-0.05878098,-0.10190351,-0.18276593,-0.13600658,0.00054762716,-0.05458425,-0.18055539,-0.030162867,-0.20740841,-0.09391497,-0.09243914,-0.17790177,-0.047614623,-0.15002626,-0.17785208,-0.081583604,-0.1797291,-0.22416689,-0.064907655,-0.14606667,-0.003393784,-0.115068376,-0.17689373,-0.13527074,-0.1930515,-0.17773695,-0.1564879,-0.16369732,-0.025265904,-0.011913449,-0.034576442,-0.121567205,-0.12970059,-0.085685536,-0.017770771,-0.1250312,-0.070872,0.001935749,-0.008421215,-0.063678354,0.008914953,0.06827492,-0.025163194,0.14816055,-0.023619365,0.11227085,-0.037607092,0.100420386,0.10462485,-0.046401598,-0.09152004,-0.0050844057,0.030098954,0.03011584,0.0003217058,-0.014569439,-0.032126315,-0.038319465,-0.0706694,-0.02109175,0.008817114,-0.08748626,-0.0058973036,-0.106566496,0.016689172,-0.09872919,-0.019590292,-0.041835617,0.07021777,-0.12438531,0.1073077,0.012825274,-0.011044374,0.10141924,0.07942621,-0.066661455,-0.07676073,0.028211849,-0.06019536,-0.028340034,0.021976156,0.062318083,0.032112144,0.06397707,0.015067564,-0.057411797,-0.08990071,-0.08641503,-0.069684416,-0.042821806,-0.0919508,-0.040333156,-0.11024027,0.009699146,0.014164648,-0.08937095,0.108131915,0.09133707,-0.045779698,-0.012857092,0.08118869,-0.08538276,-0.0759567,0.12607414,0.08191543,0.09518512,-0.054894567,0.14820501,0.02347915,0.06651718,-0.030107567,-0.053930048,0.092084005,0.046614014,-0.0007728253,-0.021061668,-0.08290636,0.06260269,0.11403355,-0.12053886,0.04914968,-0.0005232173,-0.06947561,0.08055252,0.042789806,0.1546984,-0.06188433,0.006135583,0.07037016,-0.073891595,0.009375591,0.05214136,-0.02888012,-0.091132775,-0.019198652,-0.040425394,-0.094287686,-0.009935229,0.02919059,0.12316169,0.042238235,0.03677105,0.076336935,0.09132638,0.02818607,-0.08146445,0.018077638,0.0808012,-0.03805901,0.08158977,0.064631656,0.093972474,0.008359001,-0.028183848,-0.020224724,-0.110368825,0.070584536,-0.0057016755,-0.061987013,0.06159123,-0.04843315,-0.092328764,-0.05186015,-0.041903026,-0.0689157,-0.057866745,-0.04841516,0.11805305,-0.026262516,0.08837109,0.060186807,-0.08066523,0.052289408,-0.0684513,0.0632703,-0.05356011,0.06792784,0.0455562,0.08392453,0.02123723,-0.03393455,-0.022644717,0.14034556,-0.0467074,0.15194403,0.07687504,0.11493404,0.093163185,0.06741925,0.023325866,0.043897737,-0.029617066,-0.008402898,0.03683662,0.04465757,0.03292552,-0.113881685,0.051255625,0.18853061,0.018342735,-0.22036435,-0.05904667,0.043490212,0.049961254,0.25438508,-0.25947174,-0.3014932,-0.03341418,0.022635639,0.13904855,0.034921564,0.053020548,-0.026877025,0.09158263,0.09612967,-0.07637494,-0.016672274,-0.049801763,-0.059800215,-0.087842226,-0.021713212,0.006539947,-0.026511136,0.028989177,0.054450013,0.104899265,0.091321014,0.051523007,0.033100978,-0.0697581,-0.08709977,-0.02041579,-0.092230305,0.030000852,-0.104754314,-0.014885064,-0.0631587,-0.022110134,0.08559132,-0.031329613,0.12409217,-0.06587869,-0.04512396,0.027613353,-0.0025003091,0.05476961,0.09357517,-0.06189459,-0.046035103,0.09664341,0.14333045,0.12666568,0.0050909296,0.0021414168,0.095696114,-0.032278586,0.09510918,-0.017249163,-0.057123434,0.02486745,-0.0693015,-0.11537326,0.074892744,-0.10870466,-0.03156222,-0.087522894,-0.0108819315,0.09242329,0.06686685,0.020969404,-0.21897909,-0.12793459,-0.085711524,-0.15080172,-0.013891005,-0.16559358,-0.17001405,-0.16056636,-0.09248777,-0.032386098,-0.10634986,-0.11830595,0.059700318,-0.056084402,-0.12639333,-0.06906963,-0.102060676,-0.042718004,-0.05750003,-0.026718047,0.06597355,-0.026197217,-0.07824717,-0.098114446,-0.08539015,-0.0041509005,-0.11012962,-0.034384027,-0.121962376,-0.096029244,-0.04386775,-0.17254904,-0.19667503,-0.072664395,-0.19821751,-0.021599194,-0.2118699,-0.057189684,-0.13507937,-0.104754545,-0.026122529,-0.020290421,-0.18614519,-0.2221435,-0.13307028,-0.11730358,-0.14298637,-0.122891776,-0.16127954,-0.06346924,-0.08018639,-0.13008302,-0.17867757,-0.080483384,-0.14441355,-0.060382184,-0.21163845,-0.11221816,-0.2320653,-0.14241013,-0.061866764,-0.13825922,0.07954929,0.04141893,-0.02448899,0.09380059,0.08543223,-0.054338336,-0.031724222,0.08887035,-0.05421303,0.051089875,-0.11083424,-0.02072736,-0.037560135,0.022700157,0.009738997,-0.08460377,0.061722614,0.050949484,0.10614079,-0.0309145,0.032751106,0.0009145252,-0.028435294,-0.06293186,0.032218248,-0.07302456,-0.07899623,-0.018493734,0.04044518,-0.0019290516,0.024358857,-0.11297246,-0.18016143,-0.05459512,-0.15640838,-0.012479647,-0.16949967,-0.09386679,-0.091797344,-0.19611086,0.01736385,-0.08418416,-0.022905583,-0.04382933,-0.069259964,-0.10537991,-0.18225731,-0.14429669,-0.036541138,-0.0730002,-0.16790757,-0.1757073,0.006343978,0.014718434,-0.04939397,-0.1307484,-0.081898436,0.007427485,0.2591957,0.1819187,0.23841703,0.21439204,0.20322825,0.12721796,0.26268843,0.3368533,0.13347825,0.15082787,0.267,0.22074206,0.14574929,0.287454,0.31091407,0.31620586,0.28216815,0.32270893,0.35791376,0.28793985,0.31927988,0.22890572,0.34641853,0.25998554,0.26194862,0.22050126,0.13812913,0.23371401,0.21198197,0.10521131,0.18967047,0.2097644,0.26503152,0.24734503,0.14247443,0.05634925,0.22816506,0.0540262,0.13100213,0.18376617,0.22697389,0.053323418,0.031627744,0.17281453,0.12682402,0.1883771,0.13591617,0.016462876,0.07796338,0.08854913,0.10010259,0.1419972,0.14287327,0.11213192,0.025678204,0.15083633,0.043229595,0.22922751,0.20836382,0.080255866,-0.06350756,0.06469838,0.038705237,-0.0008666363,0.025336897,-0.0014169614,-0.04182466,0.040688217,-0.07446883,-0.0040182085,-0.032383867,-0.034075968,0.13234712,0.027876813,0.13289857,-0.024705727,0.011906756,0.05222731,-0.028956123,-0.030544532,0.08096821,0.017940931,-0.090305425,-0.0016140675,0.038941436,0.04973788,0.009432992,0.02367556,-0.055807456,0.08002364,-0.05137178,-0.07620724,-0.119386196,-0.06532117,-0.09312855,0.008753976,0.026645076,-0.08063275,-0.02571641,0.03415361,0.0036639383,-0.050593346,0.09519278,-0.08379854,0.010126396,-0.06838521,-0.07118441,-0.0009952714,0.07074804,-0.008784629,-0.03395749,-0.07660295,0.05094004,0.035395127,0.05498007,0.006335234,-0.06341744,0.009862059,0.040650472,-0.11100662,-0.025209196,-0.09315037,-0.015574686,-0.00523366,-0.086657025,-0.03581333,-0.034118988,-0.026946528,-0.107257836,-0.078752585,-0.15067492,0.044549175,-0.10598063,-0.060396105,0.025022406,-0.10649172,-0.049581025,0.068852924,0.09846543,0.14536683,0.09834025,0.095978096,0.0041572894,0.079706214,0.026136374,0.08644517,-0.102764815,0.00034298154,-0.08172817,0.06302671,0.07786142,-0.03827793,0.072926566,0.02318279,-0.044458397,-0.0957647,0.019623445,-0.05380673,-0.09659528,-0.06339701,0.05366015,-0.10355964,-0.05157205,-0.00031143,-0.060274463,-0.01169568,-0.12733975,-0.07026911,-0.029831218,-0.11240713,-0.04234649,0.04172841,0.022122571,0.01645099,0.064353526,0.024004433,-0.07608838,0.07854389,0.10643358,-0.07984239,0.0770251,0.018685605,-0.07191092,-0.06840356,0.035478402,-0.09458379,0.054040544,-0.09474893,0.027958414,0.03355125,-0.09839879,-0.005231949,-0.057685554,0.007949602,0.0061484147,-0.114632174,-0.07237121,-0.14241712,-0.08224137,-0.08497521,-0.0435157,-0.06465224,0.024631554,-0.014676061,-0.027624482,-0.10705205,0.0018291188,-0.095873214,-0.044135958,-0.07366117,-0.033898607,0.011305995,0.026200889,-0.10557857,-0.124941595,0.039154135,-0.06221402,-0.050085086,-0.09242556,0.031172423,-0.0085948855,0.08704949,-0.055633254,-0.08025243,0.069745265,0.05947392,-0.036830902,-0.1193132,0.07811185,-0.11290482,-0.009425078,-0.08074515,0.012894264,-0.08704533,-0.101321235,0.11115366,-0.033915438,-0.013215732,0.08894266,-0.03273817,-0.19071083,-0.046483982,0.16829813,0.031256773,0.043088,0.014096849,-0.22576068,0.05097841,0.18224755,0.010678752,0.09419117,-0.056875113,0.033487238,0.07070087,-0.06114924,0.1357887,0.019313242,0.03655212,-0.052904144,0.08505375,0.053012893,0.111106865,0.06276254,0.10307397,0.06521012,0.14626008,0.117030546,0.042563993,0.13072334,0.07705883,0.0788229,0.027942402,0.06430438,0.02275415,-0.019425632,0.075249545,-0.037518874,0.08695487,-0.0385709,0.06992857,0.06759664,0.055696964,0.063176155,0.037007134,0.026621772,0.009884523,0.08688379,0.03402285,0.14597562,0.14754467,0.017107867,0.12248413,-0.039112285,-0.060377177,0.06344081,-0.01714834,-0.048389956,0.05125743,0.0804967,0.046746667,-0.053896107,0.008522512,-0.0139539745,0.07942568,-0.052763294,0.039830342,-0.07597454,0.07549943,0.0795272,0.15184225,0.054165825,0.048673414,0.07754924,-0.1212066,0.08328738,-0.044155717,0.07537779,-0.08329086,-0.10419025,-0.055675432,-0.07939131,0.105040014,-0.07893587,-0.09061463,0.05708857,-0.05271515,-0.063721225,0.031035181,-0.0738811,-0.013418418,-0.06548089,0.05185604,0.12812603,-0.034135967,-0.080653176,0.049959894,0.10236384,-0.053295113,0.02173818,0.108385436,-0.0414333,-0.044698156,-0.033501107,0.011659453,-0.022748806,0.069909714,0.072738945,-0.016107693,0.15079862,0.0048181578,0.06716764,0.089056805,0.13225201,-0.044264704,0.11603137,0.09615666,-0.024898212,0.10069615,-0.077507965,0.09588216,-0.025458392,0.01788494,-0.026256064,0.0510588,-0.094372496,-0.028623223,0.08563858,-0.08583345,0.03257047,-0.06567758,-0.10673963,0.06707402,-0.16240568,-0.036738086,0.027142545,-0.08650046,-0.07513426,-0.13079254,-0.021517852,0.022636961,-0.075563826,0.07161158,0.034484744,-0.08658477,0.046037044,-0.07217176,-0.12713982,-0.032049112,-0.11247262,-0.029160008,-0.0022292922,0.024646582,-0.03681865,0.12222204,0.039076377,-0.009025768,0.10254501,0.16014574,0.033843424,0.035238523,-0.0052443203,-0.005255684,0.056211665,0.1362266,0.0064966604,-0.057021827,0.073346905,0.105102606,0.11467316,-0.039628126,0.042026807,0.012026637,0.09322037,0.09714871,-0.08514317,-0.01025221,-0.08027228,0.005930134,-0.048455417,-0.103680454,0.013830619,0.09805762,-0.04983749,-0.11771959,-0.056742772,0.002150537,-0.0014168689,-0.061795253,-0.13209651,-0.10286362,0.005577559,-0.06387415,-0.012678584,0.09368974,-0.023404416,0.024495326,0.026521116,0.050848998,0.06541057,-0.07950761,0.035578858,0.11301981,0.081968985,-0.07447521,0.07371719,0.067512624,-0.049802497,-0.026214158,-0.007476234,0.013206093,-0.0137981735,0.019070495,-0.070236474,-0.082407996,-0.115319975,-0.11315876,-0.090115815,-0.076857485,0.08468787,0.10228281,0.0225956,-0.071526505,-0.034339834,-0.055962022,-0.07511462,0.09748162,-0.08686052,-0.0015330812,0.07764907,0.054317825,-0.10146382,-0.076152064,-0.028286312,-0.016771136,-0.06166812,0.025968755,-0.050260987,-0.055647954,0.04938332,-0.06969535,-0.017462768,0.0151675,-0.09331747,0.05193463,0.0008364873,-0.07574073,0.023557823,0.088084966,-0.04478705,-0.08600628,-0.029668609,0.08346574,-0.010607123,0.00747381,-0.020949898,-0.10924416,-0.10323663,0.0023177825,0.07276219,-0.07101207,-0.015920931,0.0048229583,-0.017864987,-0.028575024,0.082050286,-0.113609806,-0.05712175,-0.09581933,0.065997675,-0.0928657,0.042069282,0.000691595,-0.055336397,0.08191242,-0.07497996,-0.007164933,0.026303776,-0.06794755,-0.08027563,0.00088589004,-0.0019521347,0.0844619,-0.0979535,0.055287387,-0.1037006,-0.04696058,-0.083865985,-0.06037194,-0.054150533,-0.037324477,-0.09157049,-0.009852193,-0.09828504,0.00083044596,-0.13847104,-0.0029908845,-0.017401878,-0.112324536,0.05674397,-0.11838768,0.027409961,-0.13102755,0.057560567,-0.07752898,0.060003623,-0.09596956,0.00584144,-0.08403029,-0.12546338,-0.07203651,-0.08646082,0.06773981,-0.014714673,0.08704265,-0.04192956,-0.08501995,0.059180077,0.105505,-0.04576009,-0.019800214,0.07024328,-0.011557347,-0.09499691,-0.08532615,0.028629469,-0.05747188,0.09132042,-0.10591054,0.044377394,0.0053126924,-0.033326995,-0.057696078,0.08557019,-0.07218226,-0.0436578,0.09526482,-0.0495398,0.022840833,0.10452891,-0.01382083,-0.017578127,0.08636038,0.095295064,-0.060993638,-0.040983047,-0.00063760014,-0.055034656,0.038545657,0.14351949,0.03116445,-0.023674011,-0.026558377,0.11920472,0.005454439,0.008056336,-0.03770128,-0.0356026,-0.002410799,-0.010479067,-0.085583076,-0.0064933244,0.050413746,0.020562336,0.0921352,-0.096072935,-0.07411037,-0.057236217,-0.096160926,0.09507359,0.030307347,-0.08758422,0.0745394,-0.051412925,-0.0694407,-0.04405457,0.016585594,0.06251741,0.022245001,-0.005694828,0.007863027,-0.085039556,-0.03345797,0.0060265125,-0.05118747,-0.0017895997,-0.07546822,0.048322625,0.0013236075,0.05088863,0.037502665,-0.0919256,-0.039303675,0.041378755,0.04435775,0.021457052,0.07684229,-0.10517001,0.0063377284,-0.0818807,0.08158627,-0.11565908,0.050881177,-0.0840996,0.025915192,0.04018786,-0.03302367,-0.042354926,-0.005272488,0.0798553,-0.002303357,0.09153922,-0.09898331,0.03848189,0.018508539,-0.052113935,-0.06855584,-0.018545961,0.015700135,-0.012655404,0.028564928,-0.09312419,-0.09144351,0.047517046,-0.010851677,-0.028492736,-0.029827371,-0.04161901,-0.09219644,0.03004599,-0.07346399,-0.104348235,-0.025262924,0.12186965,-0.049017806,0.027877366,-0.047427997,0.04526428,0.07408146,0.106416345,0.053492412,0.097085215,0.036285125,0.14349125,-0.1020202,-0.061569665,-0.041377656,0.03218594,0.06056149,-0.055203598,-0.0881862,-0.05941897,-0.07420313,-0.06839311,-0.12700234,0.04899209,-0.12854484,-0.022602135,-0.122108,-0.015718713,-0.12812717,-0.014612968,0.037090532,-0.030970061,0.05380703,0.03930026,0.005503972,-0.027284218,0.02796537,-0.010238702,-0.08469779,-0.06646092,0.03996661,-0.033424955,0.04371666,0.07891463,-0.037420545,0.021948667,-0.070093445,-0.030714825,-0.13160597,-0.05356008,-0.0063599995,0.033822928,-0.105023146,-0.10631211,0.04791927,0.039526433,0.028994381,-0.00027410735,-0.13374193,-0.11750408,0.06925805,-0.09891289,-0.14657581,-0.07358854,-0.08229459,0.04872278,-0.14658718,0.041286863,-0.03367707,-0.09435294,-0.057340764,0.05725907,0.04417038,0.081362635,0.056941833,0.019918706,-0.15313563,-0.14045568,-0.084872015,-0.05249628,-0.020584702,-0.09492655,-0.11116938,-0.10034018,-0.0055323225,-0.082686305,-0.08547435,-0.10738646,0.054759856,0.010151432,0.11524446,0.118675485,0.0827482,0.11195161,-0.017341193,-0.03978866,-0.009615493,-0.10660194,0.008908239,-0.035361893,0.07361899,0.0148885,-0.035902906,0.043290112,-0.096147045,-0.0007317748,-0.11220259,-0.077326335,-0.1455866,-0.033514157,-0.1002378,-0.052600507,-0.16987811,-0.11184592,0.030723324,-0.17749575,-0.034201443,-0.14110954,-0.1535164,-0.010087462,-0.07850934,-0.009070817,0.027860664,-0.12670986,-0.14963157,-0.05797169,-0.15283552,-0.042356048,0.040131543,-0.013429193,-0.077637844,-0.08009213,-0.13905644,-0.13634092,-0.10556555,0.013989949,0.012202621,-0.012145325,-0.010378463,0.064350635,-0.06054939,0.047360018,0.04680324,0.040652543,-0.06262845,-0.0835277,-0.117674395,-0.077735975,0.042806625,0.015268144,-0.069822885,-0.12530918,0.027400408,-0.011297435,-0.1332253,-0.10943547,-0.019497039,-0.090227626,-0.09319551,-0.008935186,-0.13960029,0.032636087,0.035283122,-0.075378574,-0.026731001,-0.048226368,0.017770357,-0.07892199,-0.08778142,-0.0747426,0.074223384,-0.06717552,0.057672706,-0.060397647,-0.019059032,-0.10563267,0.0068537584,-0.121088125,-0.08181575,0.02667658,-0.11177321,-0.041901838,0.025730044,-0.016257247,-0.006940423,0.041315936,0.016685626,-0.07561171,-0.10078029,-0.13157324,-0.024122609,-0.0017387014,-0.048960384,0.1142397,-0.02789234,0.1112335,-0.00699155,0.12952225,0.064160034,-0.04973828,-0.042175457,-0.07979983,-0.004619191,0.06321323,-0.033860747,0.060516927,-0.005196774,0.07204765,0.109190136,-0.041688245,0.094528854,0.016737798,0.04708961,0.14477834,-0.01473074,0.03283528,0.13874222,0.0024616187,-0.028004277,0.12628636,-0.0057601742,0.16479081,0.15734655,0.07332274,0.1320091,0.015240166,0.14017452,-0.029566659,0.08081628,0.10513153,0.13525401,0.0025729157,0.110038675,0.028036315,0.07477828,-0.002607511,-0.010192494,-0.04922301,-0.06481789,0.02221705,0.0740216,0.07915034,0.022862399,-0.020710124,0.043295722,-0.029255603,0.08883282,-0.03173372,0.045139898,-0.014295064,-0.046921674,0.026853558,-0.0061694803,0.026782615,-0.109978445,-0.036125947,-0.11849491,0.08986343,-0.015659336,-0.1119506,-0.102937154,0.005395623,0.009547864,0.07423982,-0.08851029,-0.040484194,-0.07103475,-0.027654031,0.015699483,0.0067108157,0.033615652,-0.09165365,-0.13136354,0.023719843,0.06496461,0.06998778,-0.062172882,-0.009149917,0.09920087,0.046129216,0.11498376,0.091477506,0.119407974,0.010092714,0.10441871,0.12399354,-0.061581828,0.12486406,-0.0725229,-0.025372924,0.0873287,0.09406817,0.11668845,0.034941483,-0.005059528,0.047890734,0.1339352,-0.002210555,-0.024540812,-0.09423972,0.11016072,-0.053446803,0.09420794,-0.07487763,-0.029673066,0.054895483,-0.07117755,-0.079191275,-0.014153504,0.05216131,0.0075345505,-0.056693196,-0.033638593,-0.024475247,-0.062003348,0.04065992,0.10775989,0.066561654,-0.038791332,0.03187511,0.01182068,0.18108183,0.15002634,0.12729797,-0.038601793,0.08791081,-0.053772047,0.0031683163,-0.08873303,-0.014998032,-0.025100186,-0.05058141,-0.06346188,-0.015708536,0.03972785,0.12722348,0.10204755,0.11208604,0.12232804,-0.044002835,-0.009014531,-0.070669174,0.044318296,0.044960722,-0.0007998054,0.16796897,-0.083024986,-0.063673705,0.025039025,-0.006326201,0.02313744,-0.064046316,-0.037654772,0.052434463,0.025964735,-0.024923988,-0.06605238,0.12948431,0.016610462,-0.028350802,0.109352194,-0.03126973,0.01276453,0.044100318,-0.070772186,-0.07946023,-0.004694995,0.060572397,0.07908009,-0.075953685,-0.062300287,0.05047097,-0.09734442,-0.07979952,-0.022320224,-0.032292392,0.011202225,-0.10850373,0.05338638,-0.025061673,0.086003475,-0.08524956,-0.04437922,0.054058287,-0.031301923,-0.007905393,0.10357706,0.085738234,0.108356394,0.0074855527,-0.03911753,0.04161672,-0.004183018,0.0879637,-0.08240436,-0.009215992,0.06862466,-0.099112906,-0.045009933,0.0025560218,-0.15096608,-0.10416702,-0.13233913,-0.15813722,-0.059668776,-0.063016325,-0.0984715,-0.009151637,-0.09621115,0.013331327,-0.062646426,0.047542166,-0.08168539,-0.03844238,-0.07776812,-0.09401911,-0.0010775821,-0.09901241,0.025582789,0.08138088,0.09354255,0.011915873,-0.058798965,0.01524713,-0.044441756,-0.05013873,0.047624156,-0.06328342,0.081413195,0.039204147,-0.03850044,0.0017193059,0.08901987,-0.11045247,-0.20586918,0.15008038,0.024568517,0.10481231,-0.019060684,-0.056433495,-0.16706721,-0.026905203,-0.028311592,0.07047494,-0.0581514,0.011632025,-0.0784354,-0.12774341,-0.06559869,-0.072523996,-0.008484294,-0.056100104,0.025642572,-0.02652639,-0.013568915,-0.12371367,-0.04190086,0.076891005,0.068571515,0.08309473,-0.013361066,0.07224842,-0.057964135,-0.0022779382,-0.03819439,-0.12404395,0.01797947,-0.087450825,-0.11297018,-0.006221042,0.057064865,-0.072490215,0.040745486,0.06562312,0.017594654,0.077849194,-0.02151855,-0.13782015,-0.08334628,-0.109302305,-0.028840037,-0.00526245,-0.124240234,0.013863884,-0.05209951,-0.0164056,0.03785514,0.011842274,-0.047158357,0.027038012,0.036388323,-0.13501973,-0.022058425,0.051706452,0.051082686,-0.06226153,0.031849694,-0.09015055,0.0032181635,-0.05114183,0.05541028,-0.0023602976,-0.10533771,-0.0054373504,0.03133578,0.08890121,0.00782195,0.08601836,0.20561162,0.2276701,0.0940624,0.2171761,0.13961199,0.13753265,0.1534364,0.19982572,0.12286602,0.1714586,0.19287823,0.12073604,0.17035325,0.16984403,0.24910413,0.21030499,0.06558084,0.18970065,0.17631005,0.23483185,0.21059828,0.20299137,0.03052268,0.22954872,0.20932008,0.15477835,0.13633126,0.17534246,0.04218137,0.097537436,0.066705026,0.122955464,0.074888885,0.083473764,-0.006101541,0.054732203,-0.024935182,0.14825007,0.16534701,0.09557007,0.16212852,0.20849606,0.17103246,0.06128612,0.10158721,0.07004292,0.0786299,0.17866941,0.1845679,0.10108334,0.20470147,0.072586656,0.067313634,0.1199843,0.07217732,0.0802058,0.090191305,0.06398139,0.03582535,-0.03024832,0.11396059,0.050211538,0.07942331,-0.07206482,-0.076155744,0.082629554,0.10173087,0.08580559,0.069947205,-0.03352101,-0.011324777,-0.031204978,-0.09645088,-0.064426325,-0.0449461,0.08112287,-0.037286635,-0.071157575,0.08835581,-0.055549495,0.07110615,-0.002348944,-0.13144718,0.014449024,0.04746133,-0.06787709,-0.03671386,-0.09068049,-0.06892617,-0.07583661,-0.04815055,-0.041842826,-0.11328015,0.007656535,-0.107373916,-0.061044805,0.0007360027,-0.018584754,-0.121309265,-0.08682723,0.03749856,0.017531522,-0.11928183,-0.08747355,-0.010233731,-0.14710236,-0.082437985,0.025410175,-0.13704526,-0.08430615,-0.003199102,-0.029781375,-0.04007445,-0.075448245,-0.063654065,-0.16594404,-0.082091816,-0.08523087,-0.2421082,-0.007089972,-0.17562279,-0.18283778,-0.18430142,-0.09398438,-0.2537759,-0.08977263,-0.17887624,-0.1602128,-0.0718321,-0.16957748,-0.030796798,-0.12526858,0.008997476,-0.030119753,-0.20882677,-0.16311067,-0.13903248,-0.23442006,-0.095408216,-0.2614946,-0.1536694,-0.07661403,-0.114443496,-0.17627212,-0.14453329,-0.13936068,-0.01026871,-0.1511139,-0.03704317,-0.12935577,0.0036956538,-0.22979395,-0.17966455,-0.14979248,-0.022178575,-0.2268917,-0.08536163,-0.18434332,-0.015566895,-0.037542757,-0.19069628,-0.07281093,-0.20375219,-0.20174845,-0.14725772,-0.17610653,-0.24337135,-0.23206307,-0.13642053,-0.24257003,-0.232923,-0.20024382,-0.060535204,-0.07752433,-0.12371196,-0.061849367,-0.09426694,-0.035688158,-0.024654798,-0.015089337,-0.08805945,0.08430325,0.12577794,-0.03817991,-0.0541825,0.117868446,0.11167667,-0.06597981,-0.04895934,0.019765478,0.015174164,0.13409275,0.11664316,0.08886993,0.1301624,0.028839791,0.09939693,0.13070148,0.011373037,-0.060329694,0.026967596,-0.050788753,-0.02604585,0.06585425,-0.08562703,0.027807364,-0.08143981,-0.15179205,-0.13490228,-0.086986564,-0.016326666,-0.046011545,0.055077717,-0.0006353054,-0.025318936,-0.13023926,0.06431967,0.024215227,-0.06908798,0.02581539,-0.1030987,-0.07865601,0.08043606,0.041550536,0.05597855,0.02304403,0.09475797,-0.09219963,-0.12946506,-0.13505171,-0.118032105,0.034707446,-0.16191117,-0.18548073,-0.10180721,-0.18742767,-0.12310157,-0.015442334,-0.076784246,-0.13218299,-0.078772664,-0.061902966,0.03166858,0.06890261,0.04212062,-0.0063192155,-0.006966723,0.054834917,-0.050133247,-0.058525536,-0.045638654,0.03344773,0.046267893,-0.0378226,0.017553432,-0.08581667,0.06723522,-0.10060167,-0.08355127,-0.016223582,-0.12741472,0.063482285,-0.04374852,0.001349373,0.04938999,-0.05548302,0.03633949,-0.08642171,-0.09306942,-0.1489735,-0.15205798,0.07968862,-0.08310786,-0.05988882,0.06679672,0.091347314,0.0067359083,0.083551176,-0.111834034,-0.07972411,-0.075144306,0.0658463,-0.027412653,-0.07032976,0.119334914,0.0076648556,-0.11634376,0.01246608,-0.005201724,0.106135115,0.035644278,-0.009549197,0.06637732,0.063880004,-0.08186251,0.08876018,-0.019887874,0.04187545,0.0016504475,-0.040997077,-0.12304413,0.0852962,-0.027954422,-0.058307562,-0.07343997,0.031998217,-0.047409426,0.062887624,0.04765864,-0.06083229,-0.08953046,0.043663245,0.07215407,0.02526201,-0.1128123,0.030898789,-0.06867162,-0.018066201,-0.019023547,-0.03440355,-0.028770415,0.025301458,-0.028028429,0.050497316,0.15648201,0.07580565,0.101797976,0.12209295,0.08084818,0.0006087208,0.002184505,0.07003094,0.041541927,0.13965505,0.033112925,0.03333239,0.089465305,-0.06383073,-0.09800692,-0.053002905,0.045934625,0.031883482,0.07083718,0.044167798,0.0621649,0.055753995,0.021827677,0.09367779,0.123257026,0.012550207,-0.0027005742,0.07175443,0.07887878,-0.03838166,0.004342653,0.06416859,0.074432164,0.27644318,-0.10881219,-0.27687663,0.00043309186,0.012384488,-0.080659136,0.14792308,-0.0426823,-0.15808871,0.04074817,-0.1062037,0.033603404,0.09377834,-0.0056986082,0.06913809,-0.096818976,-0.00342423,0.032481857,0.024009213,0.04035775,0.07916519,-0.03037443,-0.07375464,-0.031864546,-0.024600124,-0.09017672,-0.08125937,-0.047018565,-0.046756327,-0.034755837,-0.07303047,0.060481664,-0.017445123,-0.07298563,0.033309713,-0.050427664,0.09407451,-0.06520691,-0.00065885694,-0.08885289,0.107655786,-0.097220354,0.031421486,-0.07909961,-0.097937375,-0.09983823,-0.027689608,-0.050998006,0.09227802,-0.043528352,0.02514151,-0.01566975,-0.06308057,-0.10984179,-0.07072517,-0.076747544,0.02208508,-0.00900743,0.010796589,-0.07187149,-0.09383471,-0.09887603,-0.02067041,0.011276218,-0.07755991,0.030119305,0.04540579,0.012376829,-0.04669477,-0.064729705,0.044310085,0.114700206,0.12644504,0.07596539,0.10614592,-0.03371047,-0.010689298,0.08673339,-0.06309741,-0.07314797,0.08503904,0.07279529,-0.08678495,0.089188196,-0.020905351,0.08872775,-0.08753821,0.043517206,-0.10246624,-0.115470156,0.024973754,-0.012929371,0.0063842745,0.055732977,-0.14511032,-0.03579976,0.056461334,-0.07339673,-0.18425676,-0.114312775,-0.12906384,-0.028786495,-0.042382464,-0.11797052,-0.10263899,-0.069588095,0.046528805,-0.09053555,-0.12253332,0.016223105,-0.10982752,-0.15949118,0.039611846,-0.13845322,0.033140995,-0.11501285,-0.046883218,-0.014300262,-0.053858276,-0.10125427,-0.09594461,0.05345585,-0.062229957,-0.011335629,0.009244159,-0.020701434,-0.0016470433,0.0721222,-0.008692002,0.16423802,0.027342426,0.07757109,-0.1341906,-0.09223893,-0.14987154,-0.012343255,-0.04653668,-0.040273946,-0.017085705,0.018391691,-0.024536777,-0.040162373,-0.20789298,-0.18698376,-0.17175165,-0.04185614,-0.0042629563,-0.16975701,-0.15338235,-0.11753392,-0.008203519,-0.13629009,0.023618056,0.047006458,-0.043244347,0.036269113,-0.03465437,-0.13930087,-0.119511746,-0.05620824,0.06518691,-0.09535275,-0.02486331,-0.16531408,-0.03836837,0.0113389855,0.03330497,-0.15227278,0.05970311,0.01245885,0.049494836,0.017973823,-0.08424041,-0.057908624,-0.06216317,-0.018725747,-0.0817759,0.0282129,-0.058261547,0.089456216,-0.00427257,0.08917137,-0.08011545,0.04100742,-0.08224193,-0.13632019,-0.121874504,-0.15959273,0.035591494,-0.012595922,-0.14700143,-0.13764738,0.11432108,0.07163296,0.16857941,0.2490178,0.05560205,0.05557841,0.060495283,0.18023331,0.18568528,0.15596516,0.16176146,0.09740299,0.17819737,0.20535994,0.22423328,0.045681886,0.24856193,0.13425401,0.13369797,0.08113363,0.2441859,0.1157376,0.07553837,0.12695141,0.114569426,0.014649615,-0.0736297,-0.02512324,-0.052208968,0.103996865,0.022046426,0.005095279,0.02009681,-0.0756634,-0.060840037,-0.0221234,-0.030453818,-0.010436898,-0.036307704,-0.0291059,0.05013145,0.06886114,0.15599272,-0.028360207,0.05656547,0.19409359,0.022635628,-0.02622236,0.14777647,0.119426526,0.1797259,-0.027513253,0.11717216,0.08890689,0.02025566,0.015306028,0.07743665,0.028742515,0.19527139,0.005498718,-0.21595341,-0.016772721,-0.14972873,-0.13693105,-0.09901405,0.08241893,0.03442901,0.03793699,-0.09629751,0.032281253,-0.023281733,-0.002089053,0.13911963,0.10885485,0.028321804,0.0673815,0.041715983,0.09906871,-0.022197096,-0.080638155,0.08506292,0.06850409,-0.093341656,0.056213714,0.0460072,-0.059529096,-0.027349165,0.07111133,0.087156676,0.016535664,-0.08522464,-0.010161464,-0.12543517,-0.058279835,-0.015113227,0.07781556,0.058568697,-0.030212943,0.04318355,-0.05838777,-0.042680535,0.04730161,-0.12891275,0.022033038,0.11088509,-0.08233301,0.00036790033,0.042376712,-0.035506684,0.1092719,-0.097790256,0.011903793,0.00021516073,-0.01808109,0.08376299,-0.021170663,-0.11212402,0.08145194,-0.062407993,-0.0010958225,0.08042574,-0.06677957,-0.007308046,0.096027076,0.1324268,0.14748693,0.017247021,0.20256548,0.18407436,-0.10195695,0.07498792,0.08199113,-0.055841837,0.018683415,-0.05719293,0.108881585,-0.024788335,0.07458255,-0.0055468427,-0.041669663,-0.05523286,0.063127615,0.085499376,0.08575097,0.05017739,-0.067935854,-0.029317755,0.083692156,0.08975421,0.08369789,0.12223094,0.11925805,-0.014538448,0.037274174,-0.12675156,0.07166801,-0.16955416,-0.15832122,-0.16073921,-0.066421695,-0.1188091,0.026919859,-0.10645793,0.021957593,-0.030984014,-0.1050918,-0.0065605636,0.025889954,0.04055703,-0.0052189906,-0.08679535,-0.12081305,0.103510365,0.016414104,0.05598277,-0.113941945,-0.07719934,0.022238635,-0.08937339,0.08368921,0.07847437,0.022610888,0.1129083,0.02583124,0.013437794,-0.10764332,-0.0030881627,-0.0728228,-0.0577842,0.03588725,-0.051042233,0.0035464573,-0.019104095,-0.1454073,-0.15077218,-0.09807338,-0.116977215,-0.12592024,-0.14905638,-0.06672695,0.045897253,-0.10335597,0.024725514,-0.018594189,0.020765897,0.00092664274,-0.08317761,-0.102350324,0.00048588114,-0.006400295,-0.03774903,0.04526669,0.07178085,-0.10691877,0.04303011,-0.13688582,-0.042646684,0.081563525,0.045855127,0.083200425,0.083227575,0.024376426,-0.08988046,-0.08789114,-0.08078038,0.07609384,0.0051768404,0.10384404,-0.08723073,0.03639746,-0.0024099147,-0.08020411,0.118665926,-0.060177945,-0.09305635,0.0663975,-0.076035835,-0.016827784,0.04772274,0.059854694,-0.028307721,-0.20286459,0.1811926,-0.08001169,0.07463176,-0.020222858,-0.098216385,0.022903897,0.05830824,-0.04072505,-0.08123316,-0.0027235693,-0.07202243,-0.074845776,0.024726162,-0.017651686,0.10840289,0.06335551,-0.016939206,0.07115388,-0.08784943,0.053599525,0.081843585,-0.10124784,-0.10386284,-0.058376,-0.02825071,0.10777269,-0.058616042,0.06296132,-0.04924164,-0.053795565,-0.055927277,-0.002071471,0.08344641,-0.023612173,-0.110777035,-0.11131912,0.0518629,-0.05389986,0.07075446,0.028429499,0.08443379,-0.10892265,-0.03218054,0.07768976,-0.016274914,0.018287906,0.032094005,-0.09854994,-0.052037116,-0.03680995,-0.0040331925,0.0055507384,-0.03880288,-0.0012046457,0.019521192,0.02850249,-0.10565178,0.043405127,0.09548859,-0.10832853,0.0013032182,-0.08196744,-0.12811328,0.045620434,0.048302542,-0.0034523143,0.031133693,0.0010621491,-0.011800725,0.02508719,-0.107819326,-0.050232504,-0.015624508,0.026672678,0.053655446,-0.004609788,0.039555445,0.10255888,-0.09071242,0.029222181,0.07645906,0.01566125,-0.07790641,0.03161087,0.08759517,-0.029759869,0.0633135,0.0053295325,0.0017135049,-0.08413824,-0.008379275,-0.06874663,-0.0875667,-0.16439687,-0.08460691,-0.15551245,-0.20288342,-0.111758344,-0.02504914,-0.058236465,-0.0077482075,0.023525843,0.027771642,0.009017793,-0.17377256,-0.0679348,-0.15782772,-0.038871795,-0.09633525,-0.07451292,-0.024372473,-0.15934476,-0.07113708,-0.013200786,-0.10189893,0.016499156,-0.08207487,-0.19804437,-0.07353483,-0.15345782,-0.118563116,-0.062176537,-0.23469874,-0.14474785,-0.22981042,-0.03283412,-0.10064332,-0.22423415,-0.13110104,-0.072147004,0.1342776,0.03440952,0.1647717,0.22035392,0.16378659,0.06140184,0.1319324,0.24556515,0.2506488,0.2122638,0.13272572,0.18759702,0.04455628,0.043910656,0.14357823,0.17608073,0.2235646,0.10983179,0.09083588,0.16258372,0.09526401,-0.0286418,0.12186637,0.020026965,0.08521506,0.037560042,0.056259673,0.13808475,0.05531192,0.05203282,0.19686106,0.016440121,0.08300757,0.1815798,0.046702474,0.06208046,0.11238257,0.18213217,0.097020485,0.022126583,-0.083720036,0.03283125,-0.14913489,0.009550042,0.0245584,0.018492062,-0.17696413,-0.058357313,-0.017155651,-0.1428686,0.02317615,-0.1214895,-0.06293592,0.038597953,0.008782375,-0.035870887,0.101022944,0.007650832,-0.003798175,-0.02483709,0.08286299,0.0651208,0.0015526833,-0.043223,0.011504171,-0.023129202,0.08534518,-0.058699574,-0.10339576,0.0861809,-0.023078477,0.09809207,0.11608651,0.06583643,0.07748787,-0.079741985,0.11617385,0.005487537,0.05580357,0.0751324,-0.00051233405,0.13258605,0.13504156,-0.017349422,0.09202539,-0.025287645,-0.0048225597,-0.03318167,-0.0060231327,0.011846858,0.07654678,0.04405959,0.091477595,0.15649804,-0.043579765,0.013265105,0.04409081,0.12623294,-0.042904615,-0.016206583,-0.033185583,-0.052684374,0.06652367,-0.052849583,-0.047531866,0.11713038,0.12013275,0.07499241,0.017062519,0.13296688,0.10732432,0.1261681,-0.03559949,-0.070696495,0.06821255,0.07297379,0.0046767346,0.009233343,0.057622224,0.028040677,-0.08837837,-0.04306236,0.032222603,0.012494251,-0.070729285,0.027953478,0.101318926,-0.09675924,0.031279348,-0.10040488,0.08236688,0.05320623,0.007015991,0.015287237,-0.11999913,0.028259894,-0.026527323,0.05418592,0.0049277027,0.021150533,0.013474903,0.078543775,0.103761554,-0.035781484,-0.05035796,0.0024436647,-0.015111872,-0.024572263,0.012533173,-0.06360548,-0.102486424,-0.040487748,0.08398291,-0.06995688,0.098696075,-0.0011149831,-0.11596248,0.09183023,0.064546436,0.10541287,-0.0017522309,-0.07703875,0.10854105,0.02943258,0.08064235,0.0005939615,0.09488047,0.06735742,-0.0010141222,0.029484274,0.0585711,-0.013826069,0.08294269,0.02168855,0.086789005,0.021260727,-0.0018685514,0.1220711,0.0827712,-0.01688041,-0.05975648,0.04720029,-0.06539347,-0.004208757,0.15060855,0.15522464,0.13183688,0.049057927,-0.089233615,0.06521598,0.052964717,0.015362432,-0.028180012,0.06887472,0.08969245,-0.0059203235,-0.044387184,-0.039652858,0.010204921,-0.12468158,-0.050043847,0.11329012,0.06391156,0.11166838,0.097096644,-0.082528934,0.10523714,0.06776521,-0.076191194,-0.024019923,-0.008760669,0.03057116,0.07303752,0.14046392,0.11109378,0.06600309,0.06941689,0.04691041,0.04586405,0.032196667,0.14735849,-0.03356306,-0.044812255,-0.056695234,0.03499858,0.058425765,0.060945727,0.052920196,-0.053842284,-0.034382213,-0.089756005,-0.056503203,0.04454857,0.044892214,-0.08341428,-0.092175506,-0.14036013,-0.1369327,-0.03790867,0.0185917,0.13035856,-0.00055589614,0.11378276,0.023288261,0.061440796,-0.036535703,0.0021012952,-0.093684055,0.035309162,-0.08716967,-0.09639946,-0.013926179,0.058018606,-0.08098504,-0.08519286,-0.10912334,-0.10246497,0.011581604,0.046367735,0.06250702,-0.037591532,-0.07225173,-0.055942874,-0.10176506,-0.057833336,-0.05363601,0.08081384,0.03982353,0.08145397,0.074241556,-0.026344901,0.08461064,0.06184457,0.11751678,-0.076071955,0.049234357,-0.043182667,0.0394952,-0.10594694,-0.094712466,-0.013999692,-0.01592405,0.069678836,0.047455262,0.04456385,-0.119793646,0.00880605,-0.038852006,-0.00541326,0.10543533,0.054794464,0.1197852,0.10443236,0.09986314,-0.022217905,0.020438189,0.013173178,0.1621188,0.06610399,0.07813033,-0.14845513,0.24071279,0.053582136,-0.073959984,-0.060120087,0.017703405,-0.06371261,0.29760665,-0.0837451,-0.03121721,0.06780379,0.05828285,-0.012881732,-0.010896651,0.07616328,-0.053279687,0.012035605,0.010847428,0.065912075,-0.02153373,-0.092287436,-0.024494827,-0.039035227,-0.057324193,-0.042592146,0.032622997,0.114528604,-0.046964202,0.14085944,0.08039057,-0.05221695,0.14495894,-0.06591008,0.07179297,-0.07948181,0.1101988,0.12411804,0.08595417,0.085836716,-0.08771494,0.017056387,0.13316134,0.02131875,0.0145638045,-0.01846044,0.13433456,-0.0752494,-0.05016385,0.042796936,-0.08850965,0.013195345,0.0062080966,0.07868398,-0.012208253,0.012869778,0.12228123,0.06702975,0.05912008,-0.014987393,0.056555144,-0.057476193,0.113833286,-0.059526138,0.10061309,-0.036675896,0.028045869,-0.0705454,0.05525538,0.15737665,-0.07549213,0.04306511,0.10122378,0.050655074,0.023884334,-0.063275084,0.09345342,0.08231947,-0.0068297866,0.09752355,0.0067452346,0.11899152,0.12699844,-0.02001746,-0.0023978485,0.01595001,0.10482905,0.039170366,-0.027524665,0.05086062,-0.006495992,0.02869254,0.004279226,0.13681328,0.0033871203,0.018199041,0.08948504,0.103140175,0.06953934,0.09556544,0.05382619,-0.050174836,-0.015070368,0.06693223,-0.07495566,0.057821102,0.02925392,0.099163614,0.08561189,0.055191755,0.08063612,0.019890212,-0.063109554,0.01481802,-0.044513505,0.14343439,0.032023624,0.078018025,0.11360627,0.11470924,0.12628537,0.040755823,-0.040858146,-0.014379003,-0.0014879886,0.044497907,0.018400459,0.0064987633,0.014338048,-0.093713686,-0.040439595,-0.08739013,-0.04582706,-0.029365508,0.04543564,0.029940879,-0.08801388,0.08541741,0.09451409,0.09031375,-0.0016976626,0.0553387,-0.023434056,0.03440292,-0.11641925,0.006858287,0.08479212,-0.069808215,-0.015973818,-0.02523433,-0.10209749,-0.065645665,-0.12362156,-0.12355915,-0.074149095,0.014785344,0.055714093,-0.14062726,0.055739593,-0.023229785,-0.15995882,0.022714218,-0.070244275,-0.08104727,0.051639404,-0.059257533,-0.0155696515,0.075135596,-0.0019172409,-0.098770514,0.07815431,0.088356026,-0.05641475,0.08611511,0.1791273,0.13013552,0.10267715,0.14270179,0.047905385,0.20554563,-0.0062844437,0.17513517,0.1973582,0.032050956,0.0051421863,0.061343655,0.064506054,0.018741697,0.19448112,0.19841689,0.1090688,0.11806945,0.14655311,-0.09601153,-0.05367511,0.07641504,-0.1709351,0.039397974,-0.16698198,-0.10480333,-0.07742225,0.04292035,-0.11409869,0.039606854,-0.15480809,-0.13783227,-0.0445426,-0.12289051,0.03836663,0.020136254,-0.14894164,-0.1701093,-0.027886607,-0.027508132,0.013668009,-0.123946145,-0.022388974,-0.073515475,-0.0719805,-0.015494895,0.029927257,-0.11321207,-0.01046751,-0.060893066,0.063940346,0.0615207,-0.0908636,0.05031384,-0.10262221,0.0354984,-0.103119925,0.0014164123,0.053969797,-0.11355543,0.0040848716,-0.07325794,0.06725659,0.04438409,-0.048894297,0.037405033,-0.054808762,-0.146008,-0.06869888,-0.13371852,0.052925136,-0.014964668,-0.06298104,-0.0435324,-0.071181454,0.0036782196,-0.01915778,0.039612714,-0.09456359,-0.09164074,-0.054536764,-0.01973735,0.059373006,-0.14183128,-0.0629938,-0.016302051,0.051430188,0.097933054,0.085576825,-0.00982489,-0.09981382,-0.012368854,-0.08968876,-0.10362299,-0.006953697,-0.090681344,0.11985586,-0.054543786,-0.04550878,-0.074907035,-0.04158055,-0.080329284,0.015604322,0.05071098,-0.009828797,-0.08520358,0.03380539,-0.114117734,0.036216833,0.04148334,0.049066253,-0.07699561,-0.08978794,0.11401417,0.13292177,0.07260081,0.10626322,0.09491233,-0.029759029,-0.06381579,-0.043541618,0.030184882,0.016729303,0.029039143,0.063365795,-0.071038395,0.06316366,-0.02014009,-0.032806512,0.057710223,0.09692085,-0.042976137,-0.049148325,-0.061004598,0.04058957,0.07070108,-0.010844066,-0.06963213,0.061804924,-0.066979036,-0.01245861,-0.05627418,-0.08162583,-0.06983709,-0.13612139,0.0291392,-0.09497332,-0.10851543,0.059673768,0.010995675,-0.06929739,-0.05039341,0.061838783,-0.08235625,-0.09233799,0.053377174,0.024186136,0.031662464,-0.080585465,-0.11003405,0.032589246,-0.0033774767,0.02693812,0.032930605,0.032695033,0.02323775,0.020151885,0.0075613875,-0.087551214,0.0032265831,-0.05957183,-0.060704153,0.089748494,-0.056213733,-0.0028651454,0.093652554,-0.06757154,0.041942935,0.013118495,-0.057572898,0.009662583,0.01595558,-0.06131188,-0.014291254,0.022942673,0.017152965,0.06429808,0.0849223,0.09599931,0.00049141375,0.114387006,-0.048130985,-0.014573633,0.004116362,0.07968108,-0.024494639,0.055046216,-0.16220635,-0.12771954,0.097558595,-0.074489854,-0.057356466,-0.032328878,0.06411621,0.016593385,0.017452458,-0.055769507,-0.13113612,-0.0060585667,-0.08988767,-0.127571,0.010979885,0.0865213,0.08997798,-0.014768806,-0.09270598,0.052569345,-0.015497242,0.010355382,0.04085076,0.083910435,-0.08495832,-0.06756763,-0.042955518,0.052959416,0.01946593,0.0846985,-0.08500469,0.1008829,0.02462894,0.09678677,-0.06573473,-0.010389478,-0.062360995,-0.08173432,-0.003454702,0.023783065,0.111015595,-0.05344424,-0.095865436,0.068089314,-0.017587768,-0.004031405,0.020524392,-0.002672482,-0.0006557608,0.0031785532,-0.01826662,-0.10317422,0.0714757,-0.01654231,0.025898384,0.046413947,-0.088320255,0.07942846,0.109163396,0.107849546,0.04110154,-0.009104994,-0.028629547,0.07256189,-0.18214801,0.015261653,-0.014764288,-0.05056814,0.020584134,-0.056607462,-0.056128174,0.036419805,0.06369101,-0.11615913,0.036197115,0.075605415,-0.042321175,0.07426433,-0.065265976,-0.113950364,0.01334587,-0.09361713,-0.11532994,-0.049173802,0.046912935,-0.055236246,-0.09411008,-0.048503716,0.06921542,-0.09061505,0.050838463,-0.092603676,0.019533915,0.029485874,-0.0042102155,-0.041343126,-0.06652231,0.0209014,-0.05537752,-0.12351583,-0.10813932,0.06768153,0.103732124,-0.08337841,0.09290949,-0.05910126,-0.040441334,0.040102962,0.0077227503,-0.016692854,0.047441114,-0.12698214,0.08845441,0.04498939,-0.051996678,0.054815236,-0.113785826,0.03860272,0.04606021,0.034499943,-0.0015324003,-0.014089584,0.024456399,0.06951346,-0.0063889194,-0.016954325,0.06728721,0.07760124,-0.031983823,0.042006202,0.014099712,0.08238895,-0.10651959,0.053956714,-0.021061234,0.019440005,0.0026662769,-0.12890595,0.10542506,0.12612899,-0.08783142,0.02108074,-0.041206583,-0.01918296,0.017412145,0.13194159,0.068019,0.07170921,0.05167664,0.03295038,0.02939033,-0.054777164,0.10809713,-0.044783294,0.07543674,-0.09657255,-0.044165574,0.07149978,0.00035835453,0.086609066,0.09126403,0.09900768,-0.004643651,0.07211552,0.12137637,0.11954582,0.13256218,-0.0531629,0.046443783,0.13134976,-0.01752875,0.09168153,-0.055551983,-0.10807166,0.10240329,0.014432074,0.011390952,-0.006311664,-0.05076844,-0.09198626,-0.032306973,0.09370854,0.04568652,-0.05333028,0.02781319,0.010302466,-0.07324412,-0.03356137,-0.12546146,0.03143087,-0.04369429,-0.058685113,-0.11578145,0.03579259,-0.13323542,-0.10085728,0.031496678,-0.11098896,-0.1775055,-0.06508711,0.059783228,-0.00054692896,-0.075672366,-0.09094321,-0.089516275,-0.03186392,-0.18395701,-0.14747155,0.0030899672,-0.020367995,-0.08140556,-0.13638182,-0.17610751,-0.031838093,0.020409066,-0.018512253,-0.084018975,0.03190329,-0.05415671,-0.121252716,-0.013991192,-0.18956253,0.03504984,-0.19320562,-0.008995881,-0.1710149,0.01432434,-0.1980445,-0.10085399,-0.11265679,-0.21717711,-0.063127145,-0.14486249,-0.28406787,-0.28421965,-0.03882314,-0.22809517,-0.2066962,-0.19263221,-0.18115316,-0.22673905,-0.049866788,-0.13871849,-0.07838822,0.009104755,-0.10165185,-0.09270831,-0.099666156,-0.08503255,-0.16537105,-0.08188754,0.014145296,-0.14212157,-0.016644346,0.24250348,0.18415543,0.2337051,0.3464869,0.19052655,0.328171,0.34515715,0.13379982,0.29966393,0.1931235,0.1391475,0.3128576,0.14912039,0.17413236,0.1647401,0.28584158,0.32469827,0.1554948,0.31404445,0.27643892,0.24064986,0.23517005,0.255824,0.40169245,0.32695106,0.32916147,0.28279296,0.4472236,0.32471147,0.28173813,0.37652883,0.34249496,0.37576705,0.3692279,0.30738172,0.17033729,0.18751231,0.20562495,0.21013369,0.36603326,0.3266846,0.1606318,0.24018724,0.15085801,0.24024424,0.08771912,0.14043841,0.30998364,0.26678565,0.2612467,0.25260714,0.2673891,0.30831948,0.20785838,0.124323234,0.22087872,0.15227047,0.11273524,0.20812975,0.19448085,-0.03481982,-0.16395684,0.024783343,0.027675811,-0.03761271,-0.051788267,0.064452514,0.04242622,-0.10868769,0.0618443,-0.047479402,-0.064607024,-0.042169277,0.06502352,0.07236609,0.003981385,0.027159033,-0.09395887,0.05353995,-0.049942266,0.028043618,-0.116571486,-0.032693405,-0.006565318,-0.0033190134,-0.097964086,-0.06453704,-0.13973556,-0.17089397,0.017415693,-0.1108159,-0.06174634,-0.043119203,-0.12255491,-0.10907976,0.024315353,-0.118614756,-0.04785205,-0.013700935,-0.07267491,-0.09857723,-0.08591627,-0.0039375694,-0.012817106,-0.15318628,-0.022153718,-0.11760819,0.00619302,-0.08459098,-0.0166722,-0.02838434,-0.010810062,0.04252758,0.1037803,-0.06409262,0.15788904,-0.11038347,-0.046091374,-0.11354509,-0.12439042,-0.109264836,-0.10515033,-0.07991266,0.04149826,-0.05334194,-0.16469178,-0.15062512,-0.102854475,-0.10067328,-0.09783914,-0.05623127,-0.038855966,-0.09052979,-0.11633053,-0.09079363,-0.0299987,-0.088289544,-0.014912599,-0.055002477,0.01892169,-0.13624583,-0.09969979,-0.07407031,-0.09128761,-0.1251177,-0.025806667,-0.007233665,-0.07134803,-0.06492606,0.0036259885,-0.059631437,0.046566933,-0.008367216,-0.042816084,-0.12209423,0.030733882,-0.051369138,-0.015784634,-0.10776262,-0.037523683,-0.036049824,-0.09628373,-0.091620706,-0.072947,0.026480557,-0.036685824,-0.1652022,0.052921493,-0.09569107,-0.06261942,-0.029184131,0.010854573,0.014570826,0.056086343,-0.00218151,-0.045393743,-0.10385746,0.0014119209,-0.12669247,-0.04360901,-0.029057529,0.097908296,-0.05217003,-0.047268014,-0.06986811,-0.10913569,0.0836025,0.019107176,-0.038173858,-0.04442837,0.051012453,-0.03764675,0.029009271,-0.0187276,-0.120690614,-0.01789866,-0.040382855,-0.056907922,-0.053842604,0.10677274,-0.07657334,-0.0083861165,0.07064563,0.009799522,-0.008010427,0.031276505,-0.028675154,0.050536614,0.036089078,-0.09072551,0.026132295,0.08513239,-0.10891664,0.06967742,-0.018257005,0.05247105,0.06649384,-0.014631013,-0.11777221,0.0077079106,0.033033717,0.049845003,0.040684044,-0.022174744,-0.1048373,-0.058672626,-0.043788485,-0.016840778,-0.02525176,-0.08732926,-0.033733796,0.0049879104,-0.058999464,0.04089929,0.086010754,-0.025312385,0.05550624,-0.027536433,-0.01828827,-0.004852452,-0.05344119,-0.13281587,0.29359517,-0.08629336,-0.054985132,-0.028806707,0.03174859,-0.0691514,0.4191114,-0.18754558,0.0037541832,0.04923611,-0.037968837,0.09664833,0.04766599,0.056548737,0.10640002,0.0040528015,-0.011942512,-0.0051310393,0.10191383,-0.06374291,0.045235045,0.1315692,0.14793783,0.12590796,0.04127703,-0.050157566,-0.06022217,0.010401762,0.114813626,0.08277462,-0.046532396,0.03360787,-0.011596514,-0.030205289,-0.02129636,0.12323395,0.13151726,0.06540397,-0.0050217877,0.043640886,0.15745337,0.03659841,0.1253144,-0.058716584,0.12958767,0.007629858,0.02005706,-0.06251618,0.0035787297,-0.02639646,0.13537462,0.051279914,-0.052454423,0.075794205,0.02593109,-0.031110985,-0.017991563,0.14889424,-0.017001236,0.10809878,0.025993917,-0.049374428,0.056320943,0.08139505,-0.019496927,0.034474544,0.03688095,0.059499398,0.12044625,-0.08750788,0.047549453,0.12822244,0.08570012,0.12901686,0.10620032,0.01740583,-0.035052948,0.06573808,0.0022113372,-0.02934166,0.08357267,0.15232782,0.0077745058,0.036141954,0.0806984,0.11898317,0.09185166,0.07148421,0.11593115,0.01910211,0.08052145,0.19645487,0.0789906,0.1338195,0.060351387,0.009873489,0.15069534,0.01704296,0.10297556,0.09508086,0.08113825,0.11310172,-0.00034606838,0.13481794,0.014900604,0.13898748,0.045371223,0.010061655,-0.037305955,0.02527881,-0.0071035316,0.057205155,-0.07782396,0.019134795,-0.08291978,0.044108626,0.000653807,0.038616717,0.062394824,-0.0013446109,-0.013781074,-0.056579914,-0.10814528,0.045189757,0.022587636,0.03598899,0.0041217124,-0.03262103,0.08209058,-0.020414263,0.02571037,0.027693495,0.1022706,0.13416761,0.14104554,0.09426229,0.022383898,0.12976241,0.030847099,0.18670127,0.0011373122,0.08649002,0.17636618,0.06668272,0.06942366,0.15412088,0.22863238,0.06603682,0.14157322,0.07140755,0.07700431,0.14426301,-0.05074986,-0.07407956,-0.00057032105,-0.04683523,-0.08852505,-0.025290843,0.059095494,-0.025094857,-0.14065753,0.0075749946,-0.1189279,-0.013198075,0.0021801419,-0.062641114,0.049729247,0.06383504,0.0069707953,-0.120962456,-0.037855063,-0.1450099,0.020044388,0.047762785,0.051812526,0.044489633,0.006179619,-0.0907191,0.011988809,-0.047860928,0.023284428,-0.14061981,0.023961382,-0.078761384,-0.071008116,-0.16744255,-0.08988085,-0.10560755,-0.010747878,0.0753762,-0.032685786,-0.04815372,-0.065794766,0.033671584,-0.027670966,-0.10002362,-0.13146582,-0.11907614,-0.11442253,-0.0144144725,-0.15597765,0.039497867,-0.08769976,-0.14975934,-0.15148489,-0.0010869083,0.01857463,-0.15438311,-0.022698313,5.6673757e-06,-0.0015260554,-0.0058365506,-0.03839209,0.08138677,-0.120659895,-0.09068986,-0.10590201,0.034215618,-0.0013670818,-0.108747385,0.059904628,-0.11121698,-0.11193249,-0.112222135,0.04297727,-0.07887899,-0.018060913,-0.03894651,-0.12522055,-0.1766161,-0.013223048,-0.12710457,-0.0037162437,-0.1046991,-0.052525025,0.022603877,-0.045380406,0.031586815,0.024049835,-0.029899487,-0.19057947,-0.028083041,-0.059303306,-0.16847983,-0.24255578,-0.15404217,-0.051798996,-0.15824796,-0.03653483,-0.07956015,0.023197511,-0.07349183,0.041110374,-0.11295452,0.027175322,0.07962014,0.08375871,0.02475089,0.018876053,0.042283986,0.11452862,-0.025793208,-0.02935459,-0.041363448,-0.003727139,-0.016425312,-0.021690331,0.021388382,-0.099158995,2.4276758e-05,-0.113230616,-0.011154089,-0.119105786,0.07073399,0.07081836,0.0004925638,-0.09012754,0.0652459,-0.12928472,-0.050394174,-0.06733156,-0.014513148,0.08475934,-0.086695865,-0.11401015,0.08745077,-0.0988957,-0.0048502847,-0.10093794,-0.016597819,-0.023708561,0.10143644,-0.074939385,-0.08187694,0.06592579,-0.053987287,0.050679248,0.08640344,-0.026276989,0.02063601,-0.000473375,0.06849885,0.12086957,0.00853673,0.0514009,0.0609032,-0.11459712,0.047281083,-0.10383586,0.049259856,0.017308982,-0.11268464,-0.05193495,0.0887607,0.016709385,0.06643634,-0.146029,0.029367864,0.0007754992,-0.03473676,0.06603532,0.09139722,0.12649426,0.008609022,0.11450387,0.065580234,0.038579624,0.058569305,0.0509218,0.09799619,0.15684755,0.034705687,0.0057484205,-0.01975471,-0.081820175,0.08108971,0.06833979,0.11817652,-0.0309833,-0.104922324,-0.0633417,-0.023434259,0.022551328,0.0007208021,0.050437767,0.033311367,0.044752203,0.014114568,-0.115815885,-0.06851632,-0.007645888,-0.074427985,0.099132404,-0.05726027,0.0012025426,0.07861442,0.14716384,-0.050032753,-0.031909715,0.05865132,-0.013514927,0.026583372,0.045729488,0.00438947,0.004855826,0.05612771,-0.05108192,-0.034620475,0.037484404,-0.041189164,0.09269785,-0.0619262,-0.06961753,0.067673996,-0.07286426,-0.100559905,-0.111475684,-0.046406478,-0.06717434,-0.013017258,0.006718331,0.027267884,0.025970241,0.07076141,0.0018290437,-0.018903257,0.07129504,0.07687415,0.01978463,0.09682551,-0.05619338,0.015620114,-0.03386122,-0.038681995,0.07374109,0.049740244,-0.00950292,0.09201989,-0.04145326,-0.05112174,0.008080865,-0.008017623,0.014727736,-0.053820062,0.090018906,-0.093068734,-0.07111235,0.10704235,0.027716974,-0.095345914,0.009732357,0.0077318633,-0.05050553,-0.097011834,-0.032313105,-0.040357072,-0.02114828,-0.08601932,0.0305409,0.034154434,-0.090940095,-0.11340391,0.06320783,-0.004706737,0.053292084,0.048932828,-0.011320729,-0.06832799,-0.124732524,0.009405071,-0.0025592179,0.05278173,-0.09103104,-0.0018557495,-0.083595484,0.08487603,0.13832307,-0.048255414,-0.03297704,0.019399336,-0.045688465,0.09292357,-0.049113266,-0.054113027,0.06633996,-0.110264264,-0.11930825,0.039360337,0.06313935,0.036470037,-0.06879228,-0.081175186,-0.048840135,-0.022811655,-0.051924348,-0.06633857,-0.020607775,-0.013243722,0.08729432,0.0025916249,-0.024629606,-0.124828026,0.038181316,-0.099300034,-0.12591022,0.020298654,-0.03712164,-0.12732604,0.0813243,-0.06575789,-0.05582605,0.07385255,-0.12967798,0.01638206,0.028331833,0.06884157,-0.034039173,-0.0818674,-0.046097036,0.035880312,-0.065900415,-0.075347774,-0.12611963,-0.13653807,0.043429554,-0.09839564,-0.0018901544,-0.07842906,0.012991802,-0.047071293,-0.035658125,-0.06734247,0.011657167,0.06318848,-0.03886918,-0.055511508,-0.03412712,-0.11627359,-0.067741476,0.06577774,-0.05770313,-0.08097401,-0.03890478,-0.05761558,-0.09078668,-0.18496083,-0.069279,-0.1907063,-0.17886806,-0.051637948,-0.069761105,-0.050854776,-0.029624322,-0.15129144,-0.106086,-0.09900192,-0.08326265,-0.14468262,-0.17227994,-0.12970503,0.02836205,-0.17156214,-0.034694772,-0.0064861374,-0.08337005,-0.15956078,-0.06416061,-0.1253863,-0.12618549,-0.15559442,-0.15615423,-0.016398342,-0.08586046,-0.20486857,-0.039973915,-0.20488776,-0.1248949,-0.056729823,-0.1318678,0.0241481,-0.14951749,0.043546136,-0.11764025,-0.024117569,-0.0859017,0.06423176,-0.006507191,0.028950522,0.003544462,-0.025996918,-0.05241486,-0.049411267,-0.046798732,-0.027387738,0.09542671,0.11101756,-0.018671785,0.03512581,-0.084233284,0.06625932,0.008835734,-0.04780958,-0.03156705,0.07490447,0.11534914,-0.0514352,0.030833606,0.057776615,0.09799191,0.024217613,-0.008441011,-0.052855268,0.12053584,-0.06444257,0.1092274,0.0064015626,0.047688924,-0.0043162843,0.02786268,-0.009978244,-0.055780854,0.044267327,-0.076293126,-0.04784497,-0.09121414,0.08007198,-0.032553334,0.05091925,-0.039582957,-0.061714254,-0.06878167,-0.010844796,0.1218518,0.06106202,-0.07942187,-0.09821946,-0.106433265,0.03420028,0.0729095,0.070806935,-0.05513348,0.07526076,0.12306656,0.08516603,-0.09527042,0.029842472,-0.054140296,-0.089288615,-0.08382046,0.03446142,-0.069485165,0.004907345,-0.056788314,-0.1480283,-0.08827347,-0.0050088842,-0.09640502,-0.006750599,-0.03544953,-0.0071490803,-0.0823867,-0.05750967,0.09245742,0.09988727,-0.0699223,0.09173716,-0.10664203,-0.10542384,-0.11404131,0.017453972,0.059613552,0.10672685,-0.081046596,0.05350576,0.07356286,0.11369758,-0.084157884,-0.059700847,-0.06926784,-0.054433413,-0.057300847,0.036680054,0.03801128,0.07866824,-0.057273716,0.016543092,0.026847525,0.06708979,-0.021257536,0.09507892,-0.08469256,0.11129171,-0.064477466,-0.031191424,0.09537032,0.13474223,0.00729848,0.06841329,0.11234876,0.12350185,0.039275136,0.104704104,0.09772171,0.018737394,-0.06211226,0.06706313,0.13041924,0.08073492,0.06746109,0.10847497,0.053441036,-0.023856336,-0.0033815643,0.056685522,-0.020246789,0.05232588,0.072990745,0.1638049,-0.052985348,-0.029536944,0.005107679,0.031674203,0.09168458,0.004508158,0.16373076,0.048323084,-0.009526549,-0.05494494,-0.026401613,-0.003059394,0.0027624436,-0.08084408,0.09059396,-0.06357523,0.04756647,0.023643095,0.06519912,0.048572414,-0.005957659,-0.08331725,-0.09641083,-0.024030346,0.046554666,-0.0842749,-0.12149438,0.0018350054,-0.04701689,-0.058078904,-0.12254301,-0.09590514,0.019039214,-0.009823287,0.008901221,-0.060713463,-0.02065019,-0.0032676249,0.053414874,-0.07140092,-0.015694074,-0.036067035,-0.04836409,-0.09667595,0.07267326,-0.057321213,-0.10183968,-0.0075745555,-0.062220022,-0.06632632,0.09898457,0.08947284,0.024890138,0.046154648,-0.056413863,-0.04247644,0.085706435,-0.05450997,0.042128332,-0.04134375,0.09658389,0.06475232,0.00076772744,-0.032589443,0.021589972,0.17861603,0.11832524,0.09152593,-0.04571715,-0.058817383,0.023030203,-0.076349385,0.09908423,0.07333889,-0.111437745,0.08832314,-0.11366641,-0.010054126,-0.089508034,0.008957788,0.04468295,0.07505027,0.07569259,-0.095011935,-0.057374906,0.123416975,-0.014200212,0.05859593,0.020912254,-0.05185369,-0.11194482,0.07043684,0.037643135,0.015138286,0.024118217,0.08771584,0.05901623,-0.11070214,-0.06913165,-0.048219405,0.018336562,-0.014019329,0.12164826,0.082053445,0.04899964,-0.023650195,0.047699638,0.0015011991,0.06936202,0.09745022,0.09317335,0.13839723,-0.08772923,-0.074876025,0.025007188,0.07246747,0.008145479,0.11330899,0.11628955,0.0055317255,0.11050186,0.1318156,0.04840561,0.1601958,-0.106312774,-0.13625742,-0.07576332,0.04790368,-0.08165028,-0.01546493,-0.05833928,0.04383927,0.0418577,-0.009469315,-0.03955187,0.04378572,-0.13552736,-0.074664906,-0.12418442,-0.15806602,0.019952783,0.05544895,0.015382153,-0.11011416,0.016705386,-0.012396157,-0.04613087,-0.04420943,0.026252294,-0.04665379,-0.13685338,-0.11070551,-0.006769265,-0.026376812,0.06914889,0.0018565499,-0.026111625,0.0754152,0.037801225,0.07474584,0.07551383,-0.08539238,0.027271053,0.048068948,-0.000620611,0.017269965,0.018285364,0.033622697,-0.034176894,0.10393363,-0.012764025,0.0148605155,0.12518358,-0.035504647,0.048503164,0.032438543,-0.085569225,0.08233117,-0.052652456,-0.0394501,-0.0045976667,-0.1037546,0.03384656,-0.06744635,-0.041658495,0.02439846,0.0076529933,0.058604535,-0.022754416,0.018103383,-0.15131816,0.009816753,-0.045890927,0.06715823,0.028586129,-0.07385043,-0.07259324,-0.075514615,-0.1401503,-0.14959313,-0.07211462,-0.04373471,-0.0036779344,-0.0812461,0.07356065,-0.12686545,-0.0006668894,0.017307656,-0.041503504,-0.005390413,0.012232823,-0.16388491,0.0348393,-0.12981732,0.019704232,0.013988284,0.04416181,0.027185487,0.023516273,-0.0038962222,0.026097598,-0.1343452,-0.055932898,0.007116168,-0.068099685,-0.10458434,-0.16553319,0.052373063,-0.099548265,-0.09483248,0.06365071,0.063595206,-0.114773095,-0.123346135,-0.11796344,-0.028996307,0.038553085,0.023747668,-0.00040231776,0.05177189,0.003564254,-0.023105424,-0.07998182,-0.103270695,-0.10310802,0.06253174,-0.1434685,0.055539954,-0.13879348,-0.027060835,-0.114128225,0.0004708751,-0.113272145,0.0022981241,-0.03999753,-0.022547793,0.06987279,-0.056997027,0.09388403,0.08373516,0.033630405,0.096215814,-0.09230624,-0.0734921,-0.002832957,0.08775762,0.018532984,-0.06332371,-0.076728,-0.06537347,0.10046304,0.003975971,-0.044512197,-0.04270506,-0.077423476,0.031032797,-0.0073423875,0.073287316,-0.0051384494,-0.018603686,-0.072519965,0.052822787,0.024288807,-0.018225571,-0.1000478,-0.080560744,0.05425802,0.024490504,-0.04579672,0.053207833,0.0138405105,0.08604413,0.075248264,-0.0827424,-0.059553575,-0.019758536,0.049517676,0.028148811,0.0944556,-0.0136250965,-0.006538885,-0.002675462,-0.022424618,0.11958241,0.046981707,0.0862352,-0.04671114,-0.029654274,-0.06573248,-0.0284431,0.11991861,-0.08279043,0.02386936,0.121645495,0.11609744,0.0776166,0.034937408,0.06908267,0.06912262,0.118799336,0.11474299,-0.050157443,0.03759895,0.08064292,0.022696353,0.09503327,0.02533959,-0.04404906,0.043167267,-0.06148842,-0.017965212,-0.03257944,-0.06603356,0.004289865,-0.00316935,0.052645057,-0.12456647,-0.085713185,-0.034954056,-0.10500002,-0.11023317,0.0042033107,0.049174517,-0.07906578,0.09508292,0.023555959,0.04811946,0.057946883,0.07304359,-0.014333416,0.059180625,-0.031085147,0.0030808968,0.11038847,0.10050285,0.10461759,0.07114106,0.054437693,0.027750313,-0.08252614,0.10452849,-0.07207055,0.028902933,-0.12128879,-0.095684394,-0.11412549,0.07700558,0.032493822,-0.029329259,-0.0084319,0.10886434,0.053924456,-0.100017026,-0.027727436,0.09581679,-0.05264755,-0.0054350332,-0.04857111,-0.07221796,-0.14685707,-0.12731087,-0.05462245,-0.11212468,-0.036561463,-0.073462576,-0.14728288,-0.10713459,-0.022581866,-0.00025136548,-0.027194863,-0.08164909,-0.08837175,-0.04763661,-0.06321109,0.046716932,-0.119966246,-0.13565703,-0.08715686,-0.057059992,0.016944233,-0.14789955,-0.1402719,0.04770283,0.000722566,-0.13051064,-0.15977341,-0.14433508,0.024373356,0.026865192,-0.09319393,-0.18428548,-0.15888,-0.04759339,-0.1500755,-0.04906933,-0.08652425,-0.067632034,-0.056213174,0.0139856925,-0.037092023,-0.013692304,-0.005239983,-0.031463597,-0.11430487,0.0016106396,-0.12188142,-0.09042911,-0.052772827,-0.1728299,-0.022807552,-0.041734546,-0.14073485,-0.032885954,-0.13745834,-0.06482834,-0.02507529,-0.022296572,-0.093107514,0.01065045,0.07478459,0.07091433,0.055380013,0.03427866,0.038988046,-0.08509008,-0.13966785,0.060615953,-0.106322184,-0.05526973,-0.045218438,-0.06845076,-0.081754975,-0.14840363,0.060737748,-0.029890995,-0.06726689,-0.08203554,-0.010974781,-0.035810985,0.049119864,-0.035910092,0.08679485,0.06992591,0.09021776,0.08881111,0.10106057,0.017777303,-0.04604982,-0.06079963,0.09811084,0.08380496,0.041344807,-0.047816556,0.018619882,-0.01391662,-0.05511894,-0.010470391,-0.06855202,-0.052714217,0.09364365,-0.09113562,0.017158296,0.00059412635,-0.013054184,-0.08488636,-0.027289473,-0.118094265,-0.02553347,0.031820416,0.019284837,0.028587613,-0.035640247,0.03944607,-0.09819608,0.006696506,-0.07658096,-0.015384896,0.051737543,0.009679198,-0.014356303,0.07752832,-0.072650865,0.09646806,0.024592921,0.06045799,-0.07167099,-0.073967546,0.0072515076,-0.09863582,-0.012459687,0.09354707,0.11746952,0.037078246,-0.022150654,-0.07301839,0.058389734,0.010689589,0.04995133,-0.06748182,0.13818106,0.07146292,-0.027215417,-0.005371972,-0.037049957,0.09212697,-0.02758057,-0.00064633565,0.12413741,-0.05733882,0.06980171,-0.07554225,-0.0649691,0.13620402,-0.06863617,0.030801296,-0.02265811,0.04838115,-0.13149554,-0.052219857,0.050593145,0.056656383,-0.038395554,0.08448525,-0.04576915,0.066321515,0.050954882,-0.036795076,-0.073402114,0.09314964,-0.11102285,-0.06156969,-0.08037304,0.08142652,-0.041244417,0.10662063,0.04679595,0.037457634,-0.06980596,-0.08105278,-0.06734083,0.03311186,0.03031464,-0.029534679,-0.022077829,0.015661035,0.0063108457,-0.05530423,0.037835523,-0.10661246,0.101475276,0.09568081,-0.051275656,-0.021638757,0.08789641,-0.04573986,-0.07724421,-0.11705763,0.05903868,-0.10213966,-0.12917633,0.061313096,0.052202202,-0.08299697,-0.027214777,-0.13208087,0.06427963,0.057263155,-0.060311697,-0.10867069,-0.0321029,0.054094333,-0.08829021,0.013248854,-0.020689912,-0.11225771,-0.03724626,-0.083717145,0.030543067,-0.10541723,-0.0312871,0.05465375,0.0039778925,-0.052848052,-0.073469,-0.0041373973,0.057915285,0.0436916,-0.056707717,-0.049948905,-0.03805742,0.03696326,-0.041783206,-0.091802515,-0.051774953,0.050640635,-0.04852706,-0.047327735,0.095882125,-0.0012929752,-0.020685479,0.019344676,0.061054777,-0.14165251,0.03133376,-0.17207919,-0.06532127,-0.018769918,-0.08439719,-0.011354745,0.035322946,-0.11377233,-0.068615206,-0.02397984,-0.03246474,-0.0960771,-0.07618531,0.034126766,-0.14944234,-0.14994502,-0.081446886,-0.01693257,0.00054979685,-0.15181622,0.029717257,-0.017326713,-0.0298368,-0.13595517,-0.14272515,-0.042610236,-0.07131087,0.019387405,-0.098778285,-0.120121695,-0.07547172,0.03337405,-0.13548166,-0.06756493,-0.121570475,0.02654934,-0.027075976,-0.16415595,-0.03103335,0.023722395,-0.16045763,0.013967009,0.039626874,-0.075004146,-0.13641605,-0.06784821,0.014570493,-0.027781548,0.040106077,0.00036649153,-0.14569062,0.038268376,0.038424514,-0.074564956,-0.158911,0.04209274,-0.07543819,-0.12082474,-0.0966305,0.053175643,-0.08748935,-0.018231248,-0.17286713,-0.10501857,-0.15751652,-0.034163117,-0.13998978,-0.06396704,-0.0871246,-0.027887614,-0.078966,-0.12879868,-0.026406633,-0.042412948,-0.10080739,0.11192772,0.010789182,0.046514288,0.10776821,0.016190816,0.08137245,-0.0758754,-0.08631983,-0.054404985,-0.003785178,0.008722102,-0.08011858,-0.030033568,-0.077747725,-0.058299787,-0.048455816,-0.015659727,-0.1787206,-0.09627029,-0.09858949,-0.048359256,0.015391781,-0.14759134,-0.11373526,-0.060959663,0.014200303,0.013823126,-0.045318138,-0.14845273,-0.09200787,-0.043048996,-0.13747609,-0.06337531,-0.036920752,-0.039731994,-0.028930157,-0.03813727,-0.022866387,-0.12193685,-0.092406385,-0.0021989655,-0.022226064,0.07375094,0.0597339,0.11897952,0.12596142,-0.041986242,-0.0029901443,0.07325775,-0.08498043,0.02509286,-0.07321777,-0.032893907,0.026228642,-0.10841242,-0.021272777,-0.039894667,0.07274853,-0.03835968,-0.09980564,0.104628585,-0.025048546,-0.041237943,-0.01544038,-0.002664061,-0.05644592,0.08339558,0.08201684,-0.053042356,0.0731659,-0.08263537,-0.03330501,-0.017357077,-0.093381055,-0.10166778,-0.1285143,0.05819215,-0.0698129,-0.02818966,0.043310706,-0.0398006,-0.035780534,0.027462443,-0.00925573,0.068821706,-0.04511864,0.14615385,-0.055999286,0.122466825,0.06621587,0.09848976,-0.08622807,0.074434884,0.073591866,-0.041972768,-0.06613351,-0.047024,0.06508104,-0.052303042,-0.06482246,-0.1256656,-0.031262867,-0.041067403,0.022722976,-0.113962255,0.023068031,-0.0016848552,-0.11608056,0.045595642,-0.14373012,0.030251075,-0.06193832,-0.07289243,0.072215736,0.10165418,0.08760195,-0.07391987,0.07312587,0.0006398648,-0.0080086775,0.043538548,-0.039427914,0.025745243,0.12550981,0.1217082,-0.087490246,-0.05004222,0.11736257,0.10410508,-0.08155719,0.010160163,0.07379019,0.089903936,0.024986833,-0.07717819,-0.016012987,-0.12694003,0.049525492,-0.15886886,-0.12442885,-0.0332692,-0.14985397,-0.07442629,0.037761398,-0.016166005,-0.11749053,-0.054202292,-0.0651161,-0.063124344,0.03794194,0.037748475,0.060526244,0.024066892,0.09915635,0.043508552,0.03792399,-0.03470981,-0.015749302,0.06559552,0.036089726,-0.03934633,0.052624438,-0.07608815,-0.07854398,-0.048987366,-0.09601433,0.021765584,0.055613544,0.114082724,0.11044032,-0.10372128,-0.117398955,-0.0008259636,0.0041715032,-0.1383108,0.068157606,0.086138815,0.061334852,0.0554003,0.09650601,0.00025555596,-0.014921922,0.11157307,-0.052530896,0.062098753,0.10105548,0.015235474,-0.010318356,-0.008822898,-0.053098593,0.115098506,0.13781285,0.0370383,0.0058545074,0.0084506925,0.012949111,0.13462889,-0.0153296795,0.034225132,0.035602115,0.05584711,0.037334755,-0.11715831,-0.09457003,-0.09908503,-0.11895692,-0.08934494,-0.035897933,-0.06787139,-0.053030092,-0.16628999,-0.014445335,-0.025597513,-0.023401545,-0.16278234,0.004318611,-0.01632266,-0.11984945,-0.002745182,-0.017694153,-0.092985466,-0.095167994,0.07199842,0.07580523,0.08238481,-0.0053180074,-0.061489478,-0.101375826,-0.05475265,-0.006579428,0.04508265,0.046001133,0.050431065,0.05711358,0.09527092,-0.05560205,0.08464376,-0.057544246,0.03937834,0.09047997,-0.040355112,0.017934402,0.010300414,0.005397893,-0.07400193,0.054580916,0.016156137,-0.02991837,-0.0752203,0.13891947,0.15213841,0.13281757,0.062078767,0.027709812,-0.039622743,0.014713923,0.057984635,0.036132935,-0.015442575,0.060322527,0.0008431642,0.04836388,-0.07003155,-0.030022345,-0.03481014,-0.12417122,-0.060207345,-0.11680916,-0.12653594,-0.028756686,-0.094538346,0.07318348,0.08068086,0.05313868,-0.12029809,-0.008040218,0.024646938,0.08015467,0.10508793,0.12986708,-0.06734605,0.09339201,-0.08463814,0.022250708,-0.09090714,-0.011398018,-0.026906075,-0.023197057,-0.0069481917,-0.034727495,0.01616511,-0.095894,0.10636762,0.10137232,0.04066909,0.07876117,-0.083409965,-0.0184796,-0.054636184,0.1051087,-0.079345025,-0.09828898,0.031029843,-0.03192075,-0.11002849,-0.081322916,-0.14212875,-0.12009745,-0.17402554,-0.12903228,-0.07610818,-0.091095306,-0.07030703,-0.07335445,-0.10099714,-0.13334483,0.033613704,-0.0737865,0.008691349,-0.08798328,0.07883499,0.08555092,-0.07899755,-0.075455874,-0.090133175,0.020944538,0.09002916,-0.022094164,0.0050463625,-0.03385256,-0.040502463,-0.013129075,-0.012821904,0.058462717,0.03910536,-0.027651735,-0.007833784,-0.04401174,-0.026475506,-0.013015065,0.029269258,0.07117022,-0.018821238,0.013900983,-0.0039876825,0.07525424,0.09140206,-0.063675076,-0.08687671,0.031397477,-0.036773965,-0.12940031,-0.019373408,-0.117695905,-0.078931615,0.014540873,-0.15566048,0.026176708,-0.056406736,0.01897924,0.054361146,-0.039641127,-0.057619505,0.028148383,-0.017289894,-0.03630589,-0.12667018,0.05077273,-0.11281437,0.025563916,-0.113413826,-0.09218239,-0.025949704,-0.0353956,-0.004374834,0.038271908,-0.068010285,-0.034062304,0.040407706,-0.019897155,-0.01919642,-0.001730016,-0.045469508,-0.11548724,0.047463764,-0.0329329,0.0073104594,-0.044717375,-0.12736373,-0.033735942,0.044733204,-0.15920192,-0.15886147,-0.06852056,0.061532825,-0.0401238,0.0006666224,-0.024326064,-0.0083926935,0.057717744,-0.11032631,-0.012273037,-0.08555882,-0.15256537,-0.11343157,0.00022015744,-0.032867964,-0.084170505,-0.098168254,-0.037754722,-0.062236134,-0.08349319,-0.030272508,-0.09779457,-0.021401253,-0.06285016,-0.032833003,0.046844434,-0.078657374,0.0464508,-0.014324467,-0.09218643,-0.119210154,-0.035051875,-0.16680919,-0.11903976,-0.0068504536,-0.021564312,-0.035304494,-0.08230581,-0.044604164,-0.17480986,-0.1227511,-0.059406392,-0.14729318,0.03365354,-0.059573736,0.07165582,0.056878243,0.068308644,0.012898152,0.025997551,0.02593497,-0.14434147,0.06257425,-0.018405886,0.00033983015,-0.15588112,0.015512386,-0.0380081,-0.107932076,-0.06085878,-0.08434132,-0.09244637,-0.15059873,-0.11838586,-0.062377945,-0.17064233,-0.020321328,-0.14781982,-0.088385925,-0.031798583,-0.119407184,-0.1924159,-0.038747065,-0.030837663,-0.16980657,-0.19554597,-0.08347312,-0.007380249,-0.080295585,-0.05734472,0.0011145308,-0.062424105,-0.07410337,-0.03181772,-0.08254456,-0.030850716,0.025942462,-0.14150137,-0.08637104,-0.008843827,-0.08358083,0.034178846,-0.0154519975,-0.026908737,0.14594245,0.11997566,-0.04840881,-0.03930967,0.014927511,0.16754411,0.051558726,-0.028259153,0.053983733,-0.028159779,0.08034499,0.08921495,0.15588598,0.16096207,0.1282354,0.06412659,-0.0034410607,-0.033440653,0.053866614,0.02947821,0.067461535,-0.00028562587,0.03216989,-0.052560575,0.025120644,-0.0009361172,0.17358248,0.04941307,0.10138041,-0.086340286,-0.04460387,-0.04184086,0.1173593,0.045422178,0.0930313,0.11374253,-0.061188843,-0.042303905,0.023134826,0.113179855,0.09821422,0.035020366,0.013385538,-0.041996777,0.023813069,-0.08569252,0.030233901,0.051851746,-0.06492813,-0.054711804,-0.14633144,-0.09842747,0.040440712,0.05511101,-0.009425559,-0.049203083,-0.0069477274,0.062386654,0.16450629,0.1319882,0.05538042,0.14883448,0.16104464,0.19149224,0.12002393,-0.019223526,0.13206209,0.060912468,0.08411913,0.2033271,0.12175608,0.0201136,0.031622726,0.039536383,0.14385949,0.18930414,0.1792825,0.047052763,0.16208823,0.20125163,0.13107403,0.015692092,0.019853929,0.06155499,0.1741703,0.058991104,0.06988896,0.20180714,0.004090461,-0.054519814,0.09791807,0.064559706,-0.13308871,-0.060801286,0.039625794,-0.0019546093,0.05703249,-0.09661405,0.0038554575,0.08496349,0.065140076,-0.03728849,0.03121927,0.03168499,-0.041131347,0.06355738,0.0515066,0.084593415,0.10064249,-0.011630916,-0.041156784,-0.041967437,-0.04990797,-0.07021525,0.023710478,-0.02878292,-0.035201818,-0.047307126,0.04079737,-0.0970523,-0.09326742,0.07213671,0.10690088,-0.03792346,-0.055939555,-0.07112825,-0.06808395,0.1048144,-0.046138294,0.021796037,0.070352495,0.041937083,-0.017402671,0.052446857,0.021350294,-0.08485923,0.034405507,-0.0024484983,-0.0477229,-0.018761165,-0.0801148,-0.07425529,0.107988074,0.1459129,-0.026296578,0.108032204,0.10944454,0.112250485,-0.013931154,0.040911626,-0.045614757,-0.011621998,0.019975502,-0.040762816,-0.0036013194,0.0075629503,-0.083785534,0.038280774,0.005143508,-0.0401404,0.14228556,-0.08591111,-0.021691998,-0.06053226,0.023546172,0.06631407,-0.055737916,-0.053861324,0.087153874,0.082405694,-0.011824135,-0.06915946,-0.0638038,-0.05100035,0.08787342,0.06169687,-0.049790256,0.022612259,0.013198617,-0.023588272,0.03491821,0.05161937,-0.031069353,0.054480042,-0.06814245,0.13405629,0.0062743286,0.102131985,0.15947086,0.054537233,-0.009010019,0.10801093,0.16130705,0.100242674,0.11413132,0.004420961,-0.0040013986,0.084536746,0.028931761,0.0246403,0.006034932,0.06353231,0.09922651,0.00273602,-0.0129821235,-0.013174422,-0.017878618,0.045022562,0.07055439,-0.038182892,0.09618258,0.066697136,-0.037304882,-0.06512229,0.027919484,-0.052346032,-0.028504666,0.030881898,0.011882154,0.008550163,-0.10790295,-0.110724196,-0.043097608,-0.08040816,0.02436259,-0.02207809,-0.02589656,0.068823874,-0.023954669,-0.028418368,0.08776805,0.014567994,0.065203086,-0.10562391,0.091817245,-0.049892094,0.029757038,-0.012296578,0.068642974,0.092597686,-0.027092943,-0.07641001,0.041645806,-0.0519975,-0.030408842,0.067623876,0.036236852,0.09279515,-0.019987933,-0.043677073,0.07152832,0.080300115,-0.10305471,-0.09346166,-0.053249765,-0.028712533,0.0422459,-0.14399895,0.0041146167,-0.14763626,0.031274874,0.0027327398,-0.12919569,-0.08436646,-0.10466384,0.039913688,-0.14052145,-0.11993983,-0.09049459,-0.11023136,-0.11628067,-0.030306397,-0.17329772,-0.0054078572,-0.14402129,0.036200244,-0.049475983,0.07183863,0.0064711724,0.041597527,0.04936778,-0.12118232,-0.004265983,0.032574438,-0.06886641,0.07028026,-0.010627571,-0.00057224516,-0.059729222,0.059251,0.048219815,-0.07425238,-0.01122294,0.021644054,0.028329274,-0.065029785,-0.17694363,0.027612241,0.20695335,0.11832481,-0.084352344,-0.109117,-0.0655297,0.106313325,0.1257057,0.06601035,0.02014852,-0.018042104,-0.010313117,-0.021326112,0.029772017,0.05544425,0.01281628,0.03737585,-0.08041567,-0.04295694,-0.032474782,-0.018636957,-0.010493827,-0.04058991,-0.0023258233,-0.012984166,-0.14440173,0.052762933,-0.038872972,-0.028328307,0.04867312,-0.08040497,0.03061393,-0.010008005,0.019666994,0.007804575,-0.07539871,-0.07766367,-0.09635685,0.06417291,0.017178074,-0.14569646,-0.11847839,-0.122058064,0.040227577,-0.12645717,-0.020290585,-0.15895966,-0.046199597,-0.10395233,-0.0027900268,-0.11787488,0.036995076,0.064506814,0.06627571,-0.035543982,0.044596963,0.017755892,-0.11646519,-0.10554956,-0.010600576,-0.06587269,-0.022166874,-0.087371595,0.00068814075,-0.11449268,-0.049281083,-0.11962756,0.06659737,0.04891996,0.0070654033,-0.09745569,0.027019048,-0.04871369,0.015276556,-0.104751274,0.1129475,0.053095575,0.06778181,0.010642327,-0.07602212,0.11378781,-0.06524637,0.089209035,-0.11391794,-0.05712594,0.022511104,-0.10302003,-0.116485015,-0.084526435,-0.0574091,-0.106134266,0.09520094,-0.035970118,0.06466533,0.09724155,0.027984101,0.060573958,0.02941898,0.002941447,0.11977592,0.11818189,0.099090025,0.0513571,0.03004811,0.045856465,0.053482257,-0.06424014,0.03631341,0.07817568,-0.084630944,-0.042573392,0.09634313,0.088410944,0.044498816,0.05051509,0.102630705,-0.049826805,0.03774599,0.051853582,-0.041002195,-0.01162332,-0.06524002,0.094051905,0.098190814,0.026194315,0.0054130685,-0.0279361,-0.021641694,-0.024387198,0.07112194,-0.08952003,-0.08809844,0.109827526,-0.06846678,-0.015929699,0.038486127,-0.073959775,0.050825175,0.013288264,0.06381118,0.07817257,-0.034697376,-0.089149356,0.08151232,-0.03421326,0.079014644,0.05815267,-0.055111263,0.053879254,-0.09053741,0.08502151,-0.0996001,-0.0854737,0.10044321,-0.013806302,0.12944178,-0.053754445,0.053978935,0.12600571,-0.040423352,0.072449304,0.03509068,0.10495498,0.09198812,0.009663451,-0.023322586,-0.03935095,0.118503384,0.023325017,-0.04610686,0.03761804,0.07177398,0.0533252,0.10814763,0.03418577,-0.030911872,-0.026468659,0.012973741,0.04518417,0.05497989,0.101809815,-0.014426449,0.11994194,-0.006102838,0.021832854,0.068516076,-0.051199667,0.029542288,0.1026176,0.118893854,-0.08742852,0.10870237,-0.109289035,-0.10272156,-0.09241808,0.045489267,0.06733852,-0.087908074,0.0009507996,-0.036470663,0.0279544,-0.12897576,-0.025188513,-0.12361745,-0.094947025,-0.12891552,-0.14809214,-0.12079245,-0.0070360885,0.027416958,-0.058705498,-0.11492635,-0.14935248,0.016266363,-0.15637013,-0.0387354,-0.08529143,-0.002933478,-0.004273686,-0.031363778,-0.14675623,-0.13257648,-0.07156055,-0.038724937,-0.049049355,-0.15740043,-0.12167634,-0.07583471,-0.07054585,0.061258283,-0.07745028,-0.10654701,0.0085794125,0.009249384,-0.017882997,-0.10639616,0.06057682,0.09602632,-0.06873931,-0.04485137,-0.07184508,-0.08580193,-0.044812698,-0.052284665,0.025266655,0.062531605,-0.056258623,0.055960283,-0.094663,0.04588153,-0.055772707,0.102092646,0.12430023,-0.024782218,0.021230245,0.008634887,0.12058755,0.056008764,-0.04716055,-0.015128407,0.032078706,0.016980838,-0.0431696,0.030664684,-0.08702543,0.03971567,0.07575326,0.06479718,0.069228075,-0.12715256,0.07398334,-0.027835526,0.075114086,-0.073475614,0.0061282907,0.021787038,-0.084102154,-0.08465173,-0.087241575,-0.11330916,0.09089687,0.007947676,-0.04141421,-0.022288732,-0.0042132013,-0.07272259,0.058447476,-0.06292371,-0.043457896,-0.036974803,0.01389209,-0.033209175,-0.13777068,-0.011953526,-0.07897302,0.048726786,-0.08358067,-0.0124268085,-0.10065358,0.067618325,-0.02731806,0.073972896,-0.097527966,0.10056732,-0.05337189,0.036152314,0.12660162,0.06838427,0.07252393,0.05822749,0.013572919,0.026803767,0.020824984,0.041656654,0.017412875,0.120731086,-0.010545236,0.114196904,-0.029399382,-0.020774966,0.049789336,-0.041306864,0.10439125,0.051248178,0.095495716,0.0018349417,0.08779423,0.07118608,0.07990379,-0.028635722,0.042676624,0.0073814895,-0.003178307,-0.09056894,-0.0454934,-0.06922092,0.040423073,-0.022667103,0.016085159,0.06757217,-0.04469809,-0.012053983,0.036309905,-0.029943343,0.072939515,0.052988805,0.018301586,-0.076676816,0.100920424,0.049778834,-0.112016685,0.06367481,0.10627972,0.059431612,0.059717067,-0.05796297,0.055815093,-0.043268945,-0.056426898,0.049509574,0.12051559,-0.0460951,-0.017045286,0.06573071,0.08899095,0.099419594,0.01897772,0.017870052,-0.13734467,-0.029745534,0.07102297,0.012377027,-0.0865426,-0.006398962,0.07595792,0.09848105,-0.06881725,0.08365794,0.007952059,0.02820428,0.096874245,-0.011415445,0.03838479,0.016844084,-0.016813321,0.07125592,-0.122792855,-0.015688214,-0.014543052,-0.13150904,-0.060918875,-0.06418236,-0.1329597,0.045901828,-0.017300582,0.054663166,-0.1195592,-0.04096931,-0.032075968,-0.027419299,-0.032315474,0.03259014,0.027232297,-0.041174017,0.034023933,0.044435583,0.10275979,-0.048060663,0.05912357,-0.005826096,-0.09665141,-0.10983486,-0.067687035,-0.03009328,0.027166167,0.08482226,-0.09019091,-0.016922742,0.033277858,-0.11039874,-0.033430927,-0.11387886,-0.09626972,0.07344957,-0.039147574,0.078296565,-0.10693352,0.025114305,0.027655302,0.028813643,0.07837189,-0.0039659217,0.11378839,0.02210227,0.0018819394,0.08624019,0.04778938,0.090791866,-0.09301881,0.02645684,0.06253821,-0.08324043,0.007110275,-0.12636684,-0.120700896,0.014393326,-0.08223141,0.0105568115,0.066390894,-0.037008397,0.054045003,0.020994717,-0.022223515,-0.11473052,-0.075128384,0.056420144,-0.010690063,-0.057028998,-0.116634995,-0.027066806,-0.035846747,-0.014015571,0.02676646,0.06724804,0.072540745,-0.010614471,-0.052993197,-0.11997978,-0.051763527,0.04999452,-0.13267568,-0.100392774,-0.048066862,-0.12172171,-0.0021663276,0.07465366,-0.04408724,-0.038632456,-0.061884895,-0.0134633295,-0.10230157,-0.047368567,-0.12030914,0.07895928,-0.017364744,-0.017983269,0.04119677,-0.11114622,-0.121856384,0.037082765,-0.086130515,-0.12348305,0.046520706,-0.038016856,-0.05011972,-0.0066927797,-0.0024450694,0.026563318,0.00940925,0.062456332,-0.06623072,-0.089927115,0.05252742,-0.112311296,-0.113065146,-0.14552206,-0.057108145,-0.047333643,-0.020885173,-0.11733325,-0.15091245,-0.019253911,-0.13154393,-0.17086075,-0.09715004,-0.19928278,-0.14475462,0.0038718074,-0.1818646,0.052222688,-0.059075247,-0.09769946,-0.016208528,-0.0066901622,-0.14643879,-0.15070572,-0.08210633,0.021956038,-0.07293818,-0.16422248,-0.085922286,-0.14488253,-0.09919315,-0.059942145,-0.039191537,-0.054736312,-0.091727816,-0.10245788,-0.0036155235,-0.100672215,-0.1317063,-0.09691744,0.00058981765,-0.09209609,-0.02939971,-0.12037584,-0.2018228,-0.03906589,-0.02576739,-0.06971176,-0.10702727,-0.10987179,-0.18821937,-0.21640146,-0.09758381,-0.14087643,-0.08971325,-0.24765031,-0.076830216,-0.16398089,-0.13810547,-0.039951723,-0.08546581,-0.011535052,-0.069237374,-0.026851412,-0.03854413,0.096272,0.10749362,-0.00093855604,-0.049415946,0.038138617,0.021845354,-0.03971702,-0.02767033,-0.07124681,0.051639073,0.041781433,0.06307224,-0.050513975,-0.032927446,-0.05153927,-0.08292838,-0.087220564,-0.016196191,-0.10497216,-0.13268632,-0.022698589,-0.11240598,-0.14639911,-0.11330698,-0.15584116,-0.048097152,-0.10669508,-0.0017108225,-0.13164818,0.13078871,0.13085887,0.1533862,0.05277563,0.055459503,0.14651068,0.24384773,0.10965606,-0.029521037,0.022021845,0.03943626,-0.008230587,0.053039245,-0.092432484,-0.013215751,-0.03979364,-0.10761411,-0.05044851,0.053535353,-0.02908845,0.09629516,0.044891942,0.04669284,0.094218254,-0.08629403,0.13397282,0.062166564,0.13935755,0.17493173,0.03374429,0.043329556,0.04825817,0.23517075,0.07818656,0.14080371,0.10724808,0.21687558,0.22537367,0.21642256,0.21764602,0.2263383,0.059860386,0.12867919,0.1147102,0.057006225,0.18763834,0.14696057,0.043750882,0.23507468,0.19369578,0.07391219,0.04159582,0.17176901,0.1810738,0.066153705,0.18123448,0.099169545,0.121969655,0.026532393,0.18218495,0.11584503,0.06760898,0.13273162,0.04349335,0.21531646,0.108604625,0.16430454,0.09975541,0.17006956,0.11879696,0.17512943,0.16609822,0.022489104,0.19963826,0.15888217,0.11660303,0.11443306,0.03420023,0.03378596,0.13039142,0.16385907,0.23950204,0.26121914,0.23258199,0.123944394,0.1461758,0.11741611,0.109602995,0.08412717,0.05087447,-0.0009009759,-0.050615486,-0.057582315,-0.034562223,-0.10094975,0.039622433,-0.022034062,0.033461478,0.008228848,-0.100390166,-0.064744584,-0.03159355,0.012488705,-0.007955523,-0.10963725,0.054552197,0.061354008,0.034459375,-0.09687339,-0.041137192,0.0044762497,0.008947336,0.06076601,0.08853984,-0.12148613,0.04895474,0.055010896,0.059221737,-0.03548032,-0.053251505,0.06788964,0.022527443,0.0072212005,0.06552915,-0.038152866,0.102957025,0.15221965,0.008441353,0.11232329,-0.07476006,-0.09474484,0.050245725,-0.12361077,-0.09237092,0.00412642,-0.0005545181,-0.12419794,-0.00070338935,-0.0217576,-0.12648742,-0.09119376,-0.0011385342,0.13611428,-0.019687632,0.12929425,-0.058817707,0.0753464,-0.056412775,0.034405217,-0.008852425,-0.096774995,0.11125987,0.09885302,-0.00094779156,0.16136613,0.07755945,0.06250783,0.06441251,0.072900504,0.009075949,-0.015626734,0.07120061,-0.12225088,0.026352828,0.09010242,0.004854753,0.1052989,-0.094904035,0.032354735,0.039390553,-0.049194485,-0.08497123,0.07472915,-0.09015547,0.048168465,0.044061467,0.07864452,-0.11223552,-0.12458175,-0.036936816,-0.03734799,-0.088617794,-0.07705767,-0.023666322,-0.024573416,-0.031543773,0.023042321,-0.036089096,0.10878301,-0.0076532075,-0.0064988867,0.044796035,0.11407762,0.016616441,-0.02537195,-0.051592316,-0.06428657,-0.052356493,-0.124525525,-0.10646393,-0.15764484,-0.0037871145,-0.055841755,-0.12915462,-0.09857636,-0.119520105,0.018265791,-0.108460516,-0.11351915,-0.032648776,-0.03099946,0.023033835,0.009245616,-0.024541743,0.08467132,-0.025346119,0.05063692,0.09082684,0.025397787,-0.06708639,-0.067686096,0.012899276,0.070547536,-0.026846679,0.040880635,-0.10458462,-0.1231665,0.014770137,-0.06671755,-0.010922093,-0.111256875,0.08061572,-0.08946053,-0.006764202,-0.0007715483,0.08472848,-0.06725235,0.095674895,-0.07835201,0.022656668,-0.014460778,0.090277635,-0.061980106,0.03278582,0.027388552,-0.044997424,0.08972774,-0.11747058,-0.06744035,-0.024322225,-0.08640486,-0.019762913,-0.13363808,-0.102336966,-0.08427526,0.03917036,-0.061861884,-0.0003816219,-0.09718753,0.07508503,0.029454283,0.044714056,0.027041353,-0.06921972,0.029458415,-0.008518131,0.09635673,-0.19057178,0.08390259,0.25278217,0.026885103,-0.013678658,0.0065208757,-0.037955802,0.00015982905,0.1571273,-0.128091,0.015959352,-0.064561844,-0.09191733,0.023734437,-0.0071872887,0.055187523,0.08788242,0.12481725,0.09260307,-0.018022621,0.12745875,0.12926412,-0.06340124,0.0068640043,-0.06316255,-0.053655867,-0.030244479,0.03570163,0.025744345,-0.10340968,0.034791816,0.10120084,0.10173227,-0.0955035,0.0651074,0.114469,0.07419601,0.08072654,0.07435049,-0.0013366861,-0.018128905,0.043930333,-0.09850043,0.09054809,0.110989854,0.018342337,0.026728898,-0.008762002,-0.08862398,0.069265515,0.08125715,-0.044850156,-0.07487458,-0.011918709,0.07754261,0.040685084,-0.073467284,0.016115854,-0.09271536,0.049945656,0.12198374,-0.066409774,0.115545005,0.115075655,-0.053558048,-0.044853583,-0.07879764,-0.043832805,0.099438876,0.077484615,-0.09482471,0.09119396,0.07607178,0.0857735,0.13294755,0.1992032,0.109520204,0.10546219,0.2501466,0.07332557,0.09704069,0.19451544,0.22061016,0.14916942,0.04638033,0.04136221,0.04530161,0.09952756,0.16285457,0.12795225,0.1907597,0.17725167,0.124305286,0.17337732,0.1149929,0.13255222,0.030500283,0.20066388,0.0058590146,0.18413416,0.14563355,0.036429927,0.19057181,0.14195451,0.1647548,0.14173657,0.17029208,0.102792546,0.10628614,-0.050390843,0.084903166,-0.08142518,-0.052926794,-0.107557185,0.09027482,-0.026661856,0.048834786,0.081541196,0.019350767,0.09661998,0.027744493,0.04107713,-0.08477234,-0.0389221,-0.039825805,-0.08337219,-0.029045124,-0.07465213,0.0032431427,-0.023482643,0.07022599,-0.062333982,0.10866166,0.14392297,0.16019167,0.20516916,0.17173976,0.09911717,0.22474383,0.23949836,0.19945955,0.09959619,0.09931864,0.18433942,0.25626892,0.20801258,0.24250665,0.27425352,0.108590506,0.062319618,0.029998338,0.058838908,0.21730833,0.18240495,0.07934435,0.10431372,0.22408564,0.023943804,0.054814644,0.09446126,0.18083219,0.04878584,0.19187689,0.1597397,0.103330486,-0.0044462183,-0.009405342,0.007755755,-0.053409234,-0.07612184,-0.052894127,-0.06461782,-0.08851695,0.012773803,-0.07232591,0.081052676,0.04134305,-0.055429302,0.022288172,-0.05304898,0.10151498,-0.024294045,0.0662883,0.101531304,0.024967974,0.19489951,0.043738864,0.2721014,0.13498397,0.26493722,0.113470756,0.28930604,-0.13851139,-0.14415814,-0.18874848,-0.062149394,-0.2067046,-0.09900841,-0.14673622,-0.1187854,-0.061891805,-0.24705756,-0.15450355,-0.23389411,-0.21996684,-0.18185131,-0.11759838,-0.26612258,-0.24054176,-0.28546312,-0.21475238,-0.2800409,-0.23091364,-0.2537208,-0.21580072,-0.37632903,-0.17487694,-0.30796596,-0.22371475,-0.17037141,-0.19530734,-0.22634175,-0.32139775,-0.34284008,-0.30690655,-0.16362473,-0.33082002,-0.14270745,-0.28898308,-0.27727413,-0.32114297,-0.20991561,-0.18597268,-0.27080137,-0.14211625,-0.12248689,-0.11325756,-0.17048086,-0.28911594,-0.26187587,-0.116601184,-0.13413624,-0.24802218,-0.13722199,-0.04151179,-0.08158115,-0.09529247,-0.15812519,-0.13198471,-0.1549217,-0.10722748,-0.2076695,-0.07684268,0.106027246,0.046383806,-0.031326186,-0.010987484,0.01784472,0.078221165,0.06650428,-0.057598542,0.059538554,0.022033429,-0.018342162,0.023280852,-0.05330473,0.02504824,-0.042184494,-0.07327021,-0.07149785,-0.014754812,-0.019239105,-0.052638568,0.0831141,-0.08713304,-0.0677709,0.106335476,0.048702605,-0.046842426,0.076453224,0.03970552,0.053285237,0.07182809,0.08934439,0.07467476,-0.03841248,-0.018705674,0.09801419,0.022642594,-0.0060939128,0.0119373845,0.0059312796,0.027894245,0.053241942,0.023541326,-0.10224193,-0.015053354,-0.1408997,0.103933744,0.100866556,-0.032416154,-0.0009099932,-0.098447435,-0.09585805,0.07359595,0.10721077,0.08562705,0.0736524,0.06245643,0.1374267,0.09762936,0.028742498,0.0676318,-0.023198854,0.023994716,0.09795987,-0.036664557,-0.10876585,-0.11361929,0.06959909,0.014889022,0.047367807,-0.04213977,0.04331863,0.0036454957,0.022844749,0.008455222,0.008284285,0.004562345,0.05338841,0.100202166,0.04451991,0.03416525,0.037497703,-0.043979004,0.005943823,0.04134201,0.09926793,0.105853155,-0.06837629,0.017052729,0.06675689,-0.033020593,-0.011790835,-0.08392352,-0.05296157,-0.06631006,0.07180527,0.08818343,-0.05659318,0.013505236,0.081857555,-0.0010877363,-0.06823651,-0.07630752,-0.13545711,0.0075393864,-0.063447185,-0.10236893,-0.058144573,-0.07971407,-0.099285856,-0.041617192,-0.035184857,0.111680664,0.060362566,0.1376787,0.14651002,-0.07194362,0.029649694,0.06200761,0.10588118,0.007135711,0.103554145,-0.014029056,0.09446735,0.07589739,0.0017743867,0.097774334,-0.01683523,0.04481857,0.08253976,-0.05671339,0.06763424,-0.029999813,0.045581352,-0.016087461,0.11727326,0.11335036,0.1087791,0.10586337,0.061389107,0.0438591,0.074871,0.13516313,-0.0017371405,0.0674797,0.07574965,-0.046573296,0.0005172479,0.079929955,-0.009057219,-0.03429032,-0.024819203,-0.01679563,0.09358449,-0.024718918,0.07570121,0.10022801,0.11331532,-0.0076635913,0.05864837,0.08025683,0.12265078,0.023560112,0.059895914,0.0229869,0.09409768,-0.029428955,0.088212326,0.0121153835,-0.03990041,-0.0631284,-0.044735458,0.0031739164,-0.0018108903,0.13264063,0.111701965,0.0524626,0.014606459,0.10790971,0.18868974,0.2376808,0.23049113,-0.3302519,0.14221393,0.057599153,0.10047744,0.1672429,0.16500513,-0.2988081,0.10367841,-0.13448472,-0.0024208538,-0.08818883,0.013103136,0.09379393,-0.013078319,-0.005340847,0.00155122,0.06687669,0.06945205,0.045205418,-0.05391816,0.0587959,-0.07183064,-0.034364227,0.09772426,0.005246055,0.0069610863,-0.052598953,0.113593765,0.018108124,0.11022157,-0.027704032,0.024355637,-0.09208549,0.010101601,-0.023352582,-0.10375669,0.031731084,-0.0066771526,-0.10089759,-0.03666217,-0.0018133989,-0.08546345,-0.057574976,-0.06899582,0.045028385,-0.113454886,0.028564032,-0.028246436,-0.057521578,0.06301974,-0.106550284,-0.105319254,0.09332787,-0.026631866,-0.06332456,-0.08408243,0.10740187,0.046261966,-0.10787735,0.1049475,-0.031133551,-0.08327013,0.07773076,0.023469472,0.07196096,0.06332834,-0.10139143,0.053034574,0.0097783655,0.023527544,-0.1452307,-0.083993,-0.008839527,-0.13069223,-0.0595971,-0.077023566,-0.11274886,-0.16653815,-0.15904714,-0.02054942,-0.16696116,-0.014333525,-0.18162815,0.011320252,-0.14289553,-0.1287132,-0.094824605,-0.16709238,-0.1423858,-0.05717343,-0.08875674,-0.17834498,-0.13141616,-0.16457133,-0.14861374,-0.03684638,-0.13394037,-0.053766478,-0.06738287,-0.050077014,-0.067561485,-0.018100327,0.017982516,-0.04003488,-0.009702474,0.029467981,-0.04248565,-0.02252655,0.018530356,0.006759794,-0.04858428,-0.0044521196,0.05561707,0.07025682,0.11984371,0.16621894,-0.01827185,0.047889534,-0.01160981,-0.04322105,0.05582209,0.122471504,0.096535526,0.0010972719,-0.059917275,-0.08134059,0.0016900295,0.059542716,0.00990707,-0.08759119,-0.0610604,-0.012941826,0.014357565,-0.0942907,-0.0049913228,-0.15737805,-0.08879122,-0.20021129,-0.037546024,-0.14583537,-0.061581787,-0.04361374,-0.041983437,-0.12628356,-0.20185885,-0.13104421,-0.0076089706,-0.02689673,-0.11506911,0.024738649,-0.03539485,0.020279737,-0.057224557,-0.10876064,-0.08839343,-0.13067375,0.07340354,0.038265176,-0.012901644,0.03250914,0.07964303,0.052599557,-0.0065564746,0.03941303,0.02104615,0.07213632,0.022798417,-0.055219308,-0.046393648,0.007122532,0.09776764,-0.040055417,0.052682955,0.023664542,0.028186014,-0.09639744,0.031617664,-0.11851791,0.018071627,-0.13248584,-0.17096375,-0.19747108,-0.14120099,-0.04676805,-0.13718659,-0.09312602,-0.23723496,-0.070015624,-0.15199351,-0.18767196,0.08138763,0.18988565,0.008514146,0.14398699,0.007955831,0.048101723,0.13664106,0.046430152,0.101855606,0.18077141,-0.03490788,0.13176091,-0.016306058,-0.027150545,-0.011381034,0.014765598,0.04550311,0.10964873,0.03204447,0.18870476,0.11883786,0.22776651,0.15629058,0.036707792,0.11303328,0.21305324,0.05256288,0.058514,0.15933283,0.06940708,0.098447904,0.031301204,0.22194143,0.13462432,0.23403972,0.095655024,0.19417392,0.2492405,0.073959954,0.07362913,0.043882266,0.22843061,0.23675765,0.22328119,0.2586124,0.09487923,0.04513213,0.17276025,0.08841745,0.22358319,0.12845062,0.122602925,0.121213906,0.12138049,0.11313042,0.1273424,0.17149763,0.04241138,0.18107687,0.14246665,-0.10582861,0.036005314,-0.099837884,0.006110562,-0.13393109,0.07150231,0.029967405,0.03221739,-0.012109987,0.06774539,0.029009532,-0.004439198,-0.06344783,-0.04422604,0.12798554,-0.0728867,-0.06265027,-0.027679263,0.099059395,-0.13247609,-0.005300608,-0.042083126,-0.050574377,0.03544533,0.07950432,-0.011399662,-0.046386763,0.07987707,0.034128707,-0.028117023,-0.05106411,-0.06620029,0.08788427,0.01593564,-0.08833738,0.054619145,-0.059054885,0.02418025,0.028505692,-0.042976495,-0.08259455,-0.08463981,0.043484937,-0.010183972,-0.17519012,-0.06594714,-0.15403782,-0.09622688,-0.15891188,0.015739018,0.029132206,0.085085884,0.024375519,-0.0072642956,-0.07639292,-0.095410146,-0.088584274,-0.101273,0.025516042,0.05616644,-0.020111304,-0.05094709,-0.03583624,0.09707119,0.026759574,-0.080985166,-0.023499409,0.008145603,-0.0037341008,-0.06478466,0.08471071,0.08706073,0.082876764,-0.14600469,0.018034898,0.02824023,0.014149717,-0.107991196,-0.08396072,-0.009292076,-0.06299221,-0.04421061,0.05020018,0.015219996,-0.015024847,-0.14811373,-0.12513216,-0.11952702,-0.093184225,-0.04250018,-0.07949902,-0.015284898,-0.1393865,-0.050915774,0.035476632,-0.056822624,0.07743417,-0.113622166,-0.0224843,0.093405224,0.12551685,0.05125881,0.024964245,-0.025762003,0.014479923,-0.022151694,0.07288486,-0.019838847,-0.10977453,-0.04161004,0.036941502,-0.10666589,-0.028700704,-0.14614752,0.046385784,0.039180823,0.0980033,0.03543824,0.09128786,0.022200268,0.033052485,-0.09596635,-0.017846588,0.08092578,0.0817207,-0.0013699176,-0.08711932,-0.050459158,0.08642338,-0.012823794,-0.01323198,0.0024466894,-0.012228784,-0.11962721,-0.1256174,0.037144653,0.07273329,0.02756663,-0.10558038,-0.022539448,-0.044974063,-0.10871331,-0.010148851,0.045074295,-0.02327655,0.055430964,-0.10674681,0.019189823,-0.03577081,-0.08352244,0.028434802,-0.10897175,-0.052565236,-0.061034627,0.044234008,0.03379189,0.011193869,0.0930324,0.06607046,0.036485136,0.08588914,-0.010128539,-0.07462818,0.048657417,0.0110196555,-0.036695685,0.09590238,0.04383406,-0.0038349344,-0.0667178,0.06221769,-0.099080846,-0.009204961,0.03821067,-0.04486388,0.044807743,-0.037332445,-0.055604886,-0.14723006,-0.07385368,0.051763512,-0.20450495,0.17639144,-0.059004705,0.012057237,-0.046647094,-0.0781262,-0.04338958,0.15403856,-0.012005567,-0.01906653,0.028726816,-0.0170189,0.040538114,0.003272525,-0.042695265,-0.08206449,-0.1250788,0.0041513825,-0.09416565,0.023584617,-0.034452286,0.02364105,0.073088,0.076250136,-0.028558638,-0.014777703,0.025842356,0.06102771,0.013620261,0.032645207,-0.09282559,-0.08022307,0.02068432,0.028579338,-0.10412972,-0.08299167,-0.018774325,0.101016365,-0.023220776,-0.05842043,-0.1189464,-0.05315745,-0.069621004,-0.071689494,-0.019551998,-0.0028993483,0.08257571,-0.086758085,-0.09076224,0.058794413,-0.08761118,0.059686076,0.05852619,0.020961223,-0.07341799,